32
16
3
3
-0.018529987
-0.030551078
0.07011323
-0.0310546
0.056992747
-0.001729194
-0.039313048
-0.03344772
-0.020816477
-0.026517907
-0.05690233
-0.09685802
-0.01658498
0.06490658
0.037021875
0.061703563
-0.070641056
0.014677581
-0.029840248
-0.032463547
-0.013937169
-0.079301104
-0.017603677
-0.021795921
-0.016564496
0.05743926
-0.05112155
0.021978874
-0.08491951
0.09027743
0.047821708
0.072033636
0.027245073
0.002794527
0.07489055
0.05473828
0.055451863
-0.031353913
0.020362427
-0.07424236
0.03136119
-0.08929874
-0.053669903
-0.06942647
-0.047466863
0.058050413
-0.031222915
0.041320212
-0.092510365
-0.012589413
-0.0425049
-0.040984802
0.07421018
0.047008086
0.071367934
-0.010026491
-0.029199421
-0.0846302
-0.07334274
0.07542732
0.032853823
-0.014811118
-0.11477882
-0.078036174
0.017449459
-0.060938045
0.012007683
0.0012986771
0.033090666
0.09218925
0.06808752
0.07353778
-0.025002142
-0.0010152354
0.012126886
-0.039611567
0.085171886
0.038952604
0.022078779
-0.02547549
0.033307962
0.01743366
-0.00047156756
0.07854219
-0.018788157
0.007859672
0.086838536
0.019816639
0.04080834
0.012812779
0.06264257
-0.101480566
-0.074867725
-0.026475033
-0.0277758
0.062318034
-0.0863891
0.057926256
-0.051756285
-0.07950239
0.023771914
-0.04620958
-0.08663705
-0.07243875
-0.05244555
-0.060370266
-0.07916347
0.023223676
-0.056917522
-0.04163601
-0.08186194
-0.04996889
0.07702107
0.09816206
-0.02388981
-0.039838634
-0.06600312
-0.031393807
-0.009483826
-0.09267387
0.035965055
0.047556918
0.05792135
0.11267492
0.09663636
0.07749602
-0.033111073
0.02904248
-0.0023034082
0.009353895
-0.021693323
0.03798506
0.027245183
-0.06873608
-0.010682719
-0.056949332
-0.09567632
-0.09037454
-0.08240984
0.049292784
0.051519394
0.015693044
0.059236255
-0.02109731
-0.031127738
-0.04962289
0.019295463
0.0021565622
0.02647556
-0.009186829
0.015435134
0.014734256
0.03922971
-0.008150574
-0.027650222
-0.026083538
0.0047853095
0.081687815
0.041032482
-0.06710413
-0.02822876
0.04727846
-0.0130667845
0.022766493
0.0012847257
-0.019445496
-0.058554273
-0.009309171
0.06521014
0.0029243205
-0.025991423
0.020555096
-0.025408339
-0.03504756
-0.026881253
0.030851854
0.04338019
-0.043537013
-0.07495833
-0.04279725
0.00030080974
0.076451704
0.025637934
-0.07106336
0.05790725
0.029333863
0.03420792
0.06979199
0.06363161
0.061225183
0.035968225
-0.07337649
0.011901761
-0.04831605
-0.06159175
-0.05569785
0.03146828
-0.09051262
-0.07067331
0.03704276
-0.09681882
0.0280238
-0.042719528
0.031113306
-0.046665672
0.016515888
-0.08531294
0.14695969
0.09269651
-0.16784588
0.1640152
-0.042279895
-0.17228673
0.07225067
-0.12691931
-0.04273214
-0.081031926
-0.0059394194
-0.032918226
-0.07010211
-0.03875451
0.04854082
-0.010171598
0.079292096
-0.007249829
0.11633983
0.0061847554
-0.13559012
0.071504995
-0.052727647
-0.02688639
0.06335808
-0.07952732
0.029484272
-0.048816167
-0.002712941
-0.11534339
0.027923726
-0.10728942
-0.12630701
0.003254308
-0.030961575
-0.050576627
0.074408226
-0.013979255
0.05596711
-0.048846073
0.074128605
0.016729543
0.042442888
0.0048648175
-0.03576965
-0.039244026
0.044075146
-0.0020378549
0.029740758
0.039428238
-0.045360357
-0.022823237
-0.019340958
0.014500629
0.07939926
-0.0013135766
-0.08596496
0.026692148
-0.097871035
-0.118368104
0.012190502
-0.120221056
-0.05756804
0.10371056
0.023533052
-0.05360333
-0.02533725
-0.082115725
0.016772991
-0.06517444
-0.110452555
-0.05010578
0.10310241
0.1529423
0.012739876
0.015305483
0.04578695
-0.052301425
0.06655735
-0.054271422
-0.15821715
0.07210753
0.031171372
0.038164724
0.0074247313
-0.03554485
0.016896235
-0.02470488
-0.058896754
0.027731612
0.055682607
0.003939638
0.00401686
0.06321666
-0.047618687
0.025169505
0.032293975
-0.0037605432
0.0033819221
0.06689497
-0.069403775
-0.011658424
-0.07467264
0.056721985
-0.07375622
-0.05149458
0.039438073
0.06384328
-0.03314598
-0.072122924
-0.0017195122
0.0003252146
-0.037557743
0.033789184
0.044978883
0.046011433
0.067952
0.06937819
-0.05920755
0.04596086
0.02198223
-0.047739122
-0.03839212
0.07622781
-0.046327446
0.023366759
0.0012050545
-0.0015196662
-0.05267933
0.028406901
-0.06386617
-0.042725395
-0.08871983
0.050002474
0.071463466
0.04420261
0.069687776
-0.07028858
0.013111772
-0.074178785
0.028080998
4.4432138e-05
-0.08628387
-0.066223055
0.0048407195
-0.035865285
-0.095970005
0.070940964
-0.06010645
-0.037429303
-0.012395125
0.0021447672
0.05834735
0.0019000628
-0.05547433
-0.05331673
-0.048300594
-0.071239024
0.054067172
-0.037568867
0.091312714
0.008150337
0.043274697
0.0533165
-0.066085
-0.06907413
-0.012339024
-0.0011639389
0.011030774
0.05645701
-0.07124126
0.051983554
-0.04980164
-0.032960888
0.0020554909
-0.011120689
-0.02971709
0.0040258816
-0.06987554
-0.078370266
0.057521723
-0.007365825
-0.0030457317
0.040417906
0.0010610347
0.004119485
-0.048641298
0.009287941
0.06639678
0.07298972
-0.037344087
-0.09287444
-0.049688727
0.0033965055
0.0542229
-0.0027357875
-0.015707644
0.008078571
0.10135325
0.02212089
0.05856864
0.0025740461
0.020298077
0.06695023
-0.073524706
-0.060400058
-0.08701954
-0.07305392
-0.003357143
-0.0498392
-0.043959986
-0.028660955
-0.029245673
-0.058608875
-0.03896052
-0.05102347
0.06876346
-0.0646229
0.01471534
0.1226487
-0.0066934405
-0.06983919
-0.06132159
-0.039388295
-0.05264944
0.019113574
0.04895853
-0.069561504
0.06790754
-0.006056812
-0.06116629
-0.022627234
0.07013131
0.018227229
0.028437415
0.0898712
0.081386656
0.073751844
-0.020251976
-0.07112339
0.06983566
-0.06327345
0.016844645
-0.061432805
0.07192924
0.014119631
0.08028095
0.02805718
0.080384865
-0.007216383
-0.0414644
0.019211868
-0.07461595
-0.0036717989
0.042562146
0.028656207
0.06313799
0.10531728
-0.01935639
0.12432575
0.037635293
-0.028255079
0.008095252
-0.03253948
0.07820097
0.055117033
0.00069621904
0.077998005
0.04851396
-0.029408006
-0.04449061
0.060629267
-0.058562517
-0.008152145
-0.057757616
0.08585545
0.09694185
0.10211315
0.060821064
0.0064946846
0.11814436
-0.044439744
0.019865394
-0.023497185
0.10059627
0.1704119
0.061285608
0.01696784
-0.10850098
-0.13960832
-0.18349244
0.044002518
0.07608748
0.06584905
0.0974971
0.09105279
0.06850908
-0.025963511
-0.075059414
0.027293256
0.02690552
0.111950584
0.0051054615
0.033743598
-0.047889233
-0.064592876
-0.020344969
-0.10897101
-0.047012214
-0.009256696
0.04229301
-0.035713397
0.03860739
0.034351785
0.03576927
-0.106542826
-0.0064324224
0.052362017
0.01794011
-0.03686778
0.089937165
0.17542848
0.18195488
0.026935076
0.044144694
0.046595667
-0.06679679
-0.048468832
-0.023749774
-0.055649593
0.04098676
-0.09294303
-0.05658016
-0.055173945
0.081330135
-0.090957075
-0.06979524
0.03688495
0.052992452
0.15506946
0.17184603
-0.00053761195
-0.012112551
0.016050767
-0.11169246
0.06746215
-0.019997047
0.047066197
0.081047095
0.0015985596
-0.048059493
-0.074622005
-0.016023776
0.012271169
0.04971275
-0.01185549
0.0028022127
0.02972259
0.06529753
0.04963126
0.1131878
-0.030025942
-0.14470689
-0.068516046
-0.010572243
-0.06666026
-0.064083226
-0.055231646
0.047665324
0.08440724
0.030410776
0.003656486
0.004131484
0.07404168
0.063253835
0.00028533992
-0.018864764
0.07867916
0.044806145
0.00032253083
0.044355568
-0.050848246
-0.03698776
-0.045391403
-0.057458937
-0.0194286
-0.044073217
0.01608991
-0.015859602
0.064321935
-0.0033667726
-0.058572486
0.056777712
-0.02632856
0.03821931
0.032003336
0.018320248
-0.030417757
0.07096576
0.08198045
0.0093518775
-0.073828645
-0.039770514
-0.011741295
-0.023614695
-0.024658827
-0.07205358
0.08098735
-0.004137341
-0.075167835
-0.009698445
0.06598735
0.028091332
-0.045103084
-0.059398856
0.012509063
0.014227346
0.012275187
0.066043116
0.048469305
-0.056792147
0.004991472
-0.04114801
-0.0052177855
0.039964154
-0.038780015
-0.09860901
0.007929899
0.06313677
-0.017902493
-0.0055227503
0.07800195
-0.10802945
0.06605108
0.057389054
-0.084998146
-0.091666706
0.027030014
-0.023271075
0.05436745
-0.061713014
0.03528441
-0.021225344
-0.027440054
-0.08033109
-0.04180506
-0.079197414
0.039246332
0.0005277831
0.022051554
0.0010763285
-0.029929666
0.089166716
-0.055054925
-0.069532424
0.087420516
0.010029415
-0.065773286
0.06225362
-0.015419218
0.0581554
0.041454572
-0.09987087
-0.068523355
0.14820294
-0.042352144
-0.073100135
0.037444208
-0.019215232
-0.022609606
0.019102456
0.015329841
-0.05260328
-0.038690366
-0.017833207
0.07669641
0.058653653
-0.0020325072
-0.049315576
0.014297773
0.047547445
-0.031767353
0.018260289
0.0649108
-0.047868777
0.093849495
0.051402196
0.064661436
0.09059486
-0.029216446
-0.038707577
-0.01061217
-0.07045567
-0.075507045
-0.06072671
-0.048015416
-0.057960164
0.042392865
-0.023983639
-0.037926763
0.12985428
-0.04461812
-0.034336362
-0.018969461
-0.080187425
0.04696407
-0.042711433
-0.02113013
-0.056776866
-0.045115754
0.03786604
-0.014241206
-0.058054097
0.102434084
-0.04963572
-0.04953107
0.011084711
0.041129705
-0.013731764
0.09358578
0.04917297
0.080639765
-0.04567529
0.081489846
0.08812139
0.063761465
0.07927726
0.12757301
0.048471488
0.045733716
0.04699123
-0.04302869
-0.07291866
-0.055029962
-0.07227145
-0.05445089
-0.029997876
-0.046893697
0.015724778
0.00736637
0.048353937
0.029434573
0.12032575
0.025002668
0.036111474
0.10959256
0.040508185
0.036580183
-0.08574628
0.026953524
-0.020188745
0.05689586
-0.057132777
0.053198576
-0.020623576
0.060360614
-0.013270909
-0.044941995
0.045086797
-0.0128387585
-0.087679885
-0.06467673
0.028961534
-0.040606476
-0.010286318
-0.06884029
0.016784882
0.048834007
0.011877768
-0.029133445
0.06714322
0.035765503
-0.07662432
0.008724913
0.05203249
0.03377313
0.01438653
0.10590392
0.04913806
0.05629316
0.065840036
0.07137341
-0.1235955
-0.16464835
0.0031344437
0.042512633
0.023700817
-0.0337092
-0.09122705
-0.07043436
0.058411013
0.00075464323
-0.037514478
-0.09137911
0.08742941
-0.025525905
0.04341763
0.017761903
-0.010424979
-0.0075527187
-0.027349623
-0.117759235
-0.05788042
0.15637323
0.13067274
0.0489405
0.05512903
0.15306059
0.08598307
-0.06688581
0.015070037
0.18257329
-0.041847806
0.011338269
-0.05221038
0.0152972
-0.049977843
0.0500416
0.07835875
-0.0025583834
0.054350525
0.021798417
-0.030366572
0.0039100978
-0.04924567
-0.005392097
0.03887085
-0.0074009947
-0.043168295
0.101748265
-0.019291643
0.07043539
-0.01994776
-0.027739353
0.0390607
0.09667114
0.018192813
-0.017231971
-0.10115782
0.03221008
0.1345149
-0.04539283
-0.036034472
0.008537709
-0.037470277
-0.06735553
0.035944823
0.0953836
0.03316291
-0.061605483
0.08334636
0.0315833
-0.16718462
-0.06795094
-0.08533912
-0.15988937
-0.035496723
-0.009078994
-0.011366938
0.007541678
-0.08991241
-0.01717005
0.009479016
-0.050229207
-0.0011171427
-0.033648442
0.075229324
-0.05065913
0.0077611282
-0.04622961
0.08990563
0.14831878
-0.04656161
-0.038856134
0.14473532
-0.08765081
0.048750836
0.021453585
-0.03408605
0.007749571
-0.038522374
0.05510426
-0.013201327
-0.006306518
-0.06344265
-0.06473745
-0.016396338
-0.051034234
-0.02201294
0.0013573716
-0.08059421
0.03843434
0.02962296
0.03513134
-0.06971174
0.061848152
-0.08280118
-0.047959667
-0.03947065
-0.06755303
0.054030046
0.019750537
0.024351453
-0.08254881
0.06787823
-0.07647537
0.04925548
-0.03324688
-0.10235249
-0.09293849
0.012710845
-0.101614855
-0.09766702
0.070900194
-0.071190245
-0.06653433
-0.13386063
-0.10762336
0.020406721
-0.14836884
-0.029964942
0.022426914
-0.066301495
-0.003818183
0.023077743
0.088155076
-0.007870245
0.001075779
0.09986043
-0.089145005
0.07326442
-0.05522297
-0.0040760776
-0.07270498
0.03346614
0.032273572
-0.12708808
-0.06777203
0.021175934
0.039377134
0.01859308
-0.034852125
0.03189258
0.010624593
-0.040607393
-0.05785748
0.084565125
0.05735691
-0.08568802
-0.114554316
-0.09834022
0.000655067
-0.086854026
-0.09574162
0.07725492
0.1147997
-0.07039066
-0.069892526
0.053358395
-0.04295438
-0.061951585
0.015680233
-0.031521767
-0.06061007
-0.053007774
-0.043034025
-0.09290414
-0.017267428
-0.0448541
-0.07468185
0.043085035
-0.03359257
-0.100824706
0.0060750255
-0.06549255
0.10303365
0.05987385
0.045157086
0.10654416
0.013295398
-0.08494188
0.04488923
0.06989651
0.031976808
-0.025294498
-0.026306923
0.009996612
0.13419877
-0.06430506
-0.04147783
0.016097235
0.09561361
-0.08771553
0.09341311
0.16858323
-0.073656425
-0.034825593
0.15970972
-0.00809728
-0.04628669
-0.08661066
0.019781336
-0.07500804
-0.07076156
0.049149055
0.034881845
0.053145606
0.1414892
0.078812525
0.043318603
-0.08082984
-0.0108649535
-0.094422854
-0.07386008
-0.09657402
-0.06009486
-0.038731538
-0.0090627065
-0.09639011
-0.013330173
-0.022386936
-0.015589485
-0.058932636
0.07024897
-0.023004059
0.030519724
0.040741388
-0.08276288
0.020453421
-0.024484823
-0.07020213
-0.07329264
0.011417324
-0.087829776
0.09091215
0.0065055983
0.06325488
-0.035727307
0.034822207
0.03213177
0.014286298
0.037026815
-0.08781346
0.021802632
0.035915226
-0.09443061
-0.029295027
0.03549818
0.11776559
-0.013645746
-0.0065878853
0.002328654
-0.060779504
0.0125050135
-0.13027786
-0.02862315
0.015824888
0.004270826
0.12629066
0.11697379
0.008639238
0.17192313
0.14493191
-0.04459223
0.022299856
0.028783364
0.15813994
0.14783004
0.03097007
0.060794808
-0.18017477
-0.17744853
-0.062324118
0.0006252943
0.038400836
-0.028159533
0.029707242
-0.11465325
-0.044387948
0.07338122
-0.03611963
-0.088998035
0.11217092
0.03144436
0.088871695
0.039278463
0.024167964
0.011716468
-0.12335073
-0.007234459
-0.09671604
-0.11416089
-0.0636809
-0.003751694
0.038933825
0.033238232
-0.04882894
-0.0058007995
0.04928723
-0.09786172
-0.080561236
-0.029311456
0.039342593
0.025898261
0.013789781
0.04397302
-0.03704855
-0.009092027
0.035721842
-0.03235035
-0.045536198
0.04377156
-0.012589685
0.024685448
0.09878293
0.08318114
0.117041335
0.06183508
0.09902875
0.100404605
-0.050543528
0.064363405
-0.023364197
-0.11156481
-0.107688606
-0.04826161
-0.042283535
-0.029283024
0.039727777
-0.059504338
0.09387686
0.0052120676
-0.020391919
-0.040925737
-0.03259184
-0.056401048
-0.03258886
-0.0074673113
0.12062655
0.07195239
0.08124345
0.051735684
-0.1204445
-0.16043639
-0.12483739
-0.003140142
0.063902974
-0.0076672975
-0.011743233
0.006062663
0.0452359
-0.06357111
-0.043623693
0.10131067
-0.00025584476
-0.06321274
-0.03813333
-0.03513475
0.016928658
0.043919686
0.05855585
0.0018037681
0.05412328
-0.010936299
-0.067479156
-0.043808747
-0.08741279
-0.0676117
0.009741188
0.049144924
0.07407394
0.042088795
-0.07272639
-0.041043103
-0.0682062
-0.07850089
0.031710017
0.024430979
0.06324692
-0.05711775
-0.015886301
0.06860274
-0.059135664
0.0062049115
-0.01358425
-0.024092305
0.08201696
0.013967647
-0.009753648
-0.0067902976
0.09937517
0.027822455
-0.091375805
0.074412264
-0.039332476
0.05435775
0.0800537
-0.10222692
0.06896861
0.06771591
-0.02023268
-0.017618695
-0.041868363
-0.032534778
0.066753834
-0.07155535
-0.11632946
0.03486306
0.12047126
-0.14435124
0.031216659
0.013738455
-0.102663524
0.060877245
0.09612974
-0.15442498
-0.013755471
-0.053018782
0.038308974
0.038862977
-0.05745464
-0.053283162
0.024005933
0.022976791
0.06957819
-0.053369798
-0.036812454
-0.11174313
0.09945892
0.018746654
-0.055214167
0.023129994
0.07469452
0.012154642
-0.041749474
0.064976156
0.018605614
-0.049178485
0.047636244
-0.09617119
0.04597965
-0.07354734
-0.09212202
0.09948833
-0.007502822
-0.01614005
-3.4603767e-05
-0.030927412
0.06351175
0.015423042
-0.0018215786
-0.033417076
0.078556575
-0.023616975
-0.07198957
-0.0530789
0.033464488
-0.02044943
-0.057695895
0.013762961
0.021725517
0.0351535
0.050680082
-0.06651302
0.058171492
-0.05419337
-0.042370357
0.14660867
-0.046021093
-0.11316988
0.0034822482
-0.03973501
-0.10688748
0.06643905
-0.063061416
0.006294263
0.019262606
-0.018091027
-0.0636835
0.027908029
0.06465414
0.037613865
-0.07105167
0.036827195
-0.02180189
0.04708407
0.112639286
-0.0012013485
-0.014108546
0.008330246
-0.105170116
-0.052182943
0.04597489
0.0020505504
-0.02793821
0.11671115
-0.01891085
-0.05601442
-0.112485774
-0.11600373
-0.05388941
0.033390544
0.044017505
-0.098287605
-0.108053885
-0.056824263
-0.10605555
0.04598409
-0.023481533
0.054191235
-0.053041816
-0.0008576918
-0.0066200644
0.034377858
0.0010579956
0.01172887
-0.01553909
0.034185752
-0.042541783
0.058256995
-0.03672593
-0.048570875
0.0080519775
-0.045357466
-0.07864459
0.014905019
-0.094408914
0.036850452
-0.08596541
-0.102940686
-0.08063055
-0.06600979
-0.080290526
-0.0813854
-0.009725262
-0.06360379
0.09912042
0.07748081
0.06688475
-0.047586747
-0.087033406
-0.029294359
-0.017597543
0.011034489
0.020389592
0.06426117
0.014968114
0.06841819
0.05555122
0.15968013
0.13752453
0.09091797
-0.10842266
-0.01032948
0.09226181
0.14447533
0.10145117
-0.011711851
-0.080367975
-0.0067208963
-0.046054654
-0.0017141785
-0.027928969
0.03741291
0.05002729
-0.047198426
-0.097423226
-0.06874377
-0.054813605
-0.1163709
-0.048290025
0.11936031
0.088035025
0.09609554
0.026173886
0.06770651
-0.07874445
-0.12864086
-0.0030215282
-0.11217919
-0.11615173
0.054951984
0.037711676
-0.026723906
0.076604314
0.073322095
0.080252655
0.002538819
0.017647097
-0.051479507
-0.08421934
0.036081925
-0.03753189
-0.079712905
0.074611776
-0.008024748
0.014319678
-0.082626045
0.0044893036
0.031191979
0.0130359335
-0.0029978235
-0.054338995
0.14916918
0.13860573
0.067642875
-0.06489483
-0.044814017
0.021036167
0.10643431
-0.016233604
0.007829765
-0.07459359
-0.020925177
0.014718777
-0.08097401
-0.11071526
-0.05665473
-0.05348219
-0.08631379
0.02382757
-0.051996335
0.046488993
0.07457771
-0.120453686
0.051749468
-0.010991416
0.07912458
0.08103711
0.088670105
0.01674112
-0.064979
-0.020294474
0.02719533
0.0068758857
0.03875867
0.07392524
-0.0057713375
0.070676185
0.0042722975
0.03389094
0.0680479
-0.033624932
0.051507603
0.02106554
-0.058417544
0.023999812
0.041686755
-0.041689985
0.009493297
-0.09260026
-0.06318311
0.055504683
-0.042419303
0.072177604
0.07481929
0.07747092
-0.019301243
0.018305393
0.038806807
0.05397264
-0.017543893
0.015362576
0.044908416
0.03910332
0.093960114
0.08118283
0.08228553
0.10584434
-0.0047797146
0.026492305
-0.054222304
0.04502936
0.039859653
-0.06845372
-0.075911835
-0.06270017
-0.058732934
-0.023137558
-0.024526024
-0.09305892
0.07867573
0.035656724
0.07231069
-0.030262262
-0.038401484
0.023189617
-0.05044541
-0.010972356
-0.16161531
0.1533379
0.1566965
0.0805453
0.08813439
0.16037247
0.20204215
-0.0043812227
-0.013626959
-0.110631295
0.010253947
0.042517435
0.033867475
-0.010077588
-0.07587669
0.007345053
0.07784464
0.00041608574
0.089375824
-0.046200544
-0.08677025
-0.06385045
-0.011686683
0.029407324
0.027748162
0.02637137
-0.0031548257
-0.01853223
0.016536204
0.028554536
0.04375648
-0.032554988
-0.01402553
-0.10406554
0.0220972
0.0353405
-0.14126164
0.055593792
0.11526493
0.08702546
0.054966155
0.0026967004
0.0041899728
0.064957954
-0.10356882
-0.10849633
-0.019583818
0.029324595
-0.08356833
0.033183992
0.026398024
0.013051708
0.012761974
-0.10160561
-0.003891538
0.029427268
0.12333415
0.0011841655
0.020524625
0.10097607
0.09714833
-0.0048447065
0.029862417
-0.102194466
-0.07609335
-0.0465256
0.010063767
0.0079578245
-0.07323656
0.009594436
-0.05308144
0.050610714
0.01792984
0.07304088
0.04629337
0.054319225
-0.058569636
-0.03285016
-0.040601086
0.086625695
-0.05381515
-0.050065275
0.027077362
0.022589011
0.006933879
-0.038773824
-0.09790543
-0.014125296
-0.068662524
-0.08397164
-0.07491231
-0.0137160765
-0.03733264
0.04358377
-0.03141046
-0.06425421
-0.0029080824
0.014223613
0.027490199
-0.022230024
0.023676557
0.072764866
-0.036112476
-0.055758666
-0.059203327
-0.009740634
0.020711744
0.025227886
0.032185186
-0.01135694
-0.0841708
0.042351354
-0.007555899
0.044305075
-0.0874676
0.0040955227
0.02363246
-0.026418958
-0.026255615
0.03270384
0.003820583
-0.027111426
0.054286882
-0.04380511
0.022490304
0.009590274
0.07433265
-0.007035746
-0.04667502
-0.04245394
0.026456483
0.052555364
0.056690823
0.100395866
0.11152486
0.0052552433
0.15870383
0.081974626
0.028018843
0.08167083
-0.10826883
-0.03654219
0.0020819402
0.03445052
0.100054204
0.10638093
0.10246953
-0.053468123
0.03069047
-0.13000616
-0.0014012692
0.007598543
0.13211977
0.027648145
0.117264405
-0.10027442
-0.063450426
-0.02846937
-0.1539187
-0.17796065
0.029037356
0.022932166
-0.008711025
0.018720878
0.045134258
0.048310008
-0.008683763
-0.058328927
0.037523694
0.0920697
0.03940132
0.005892974
0.022349577
-0.110643685
0.007145364
-0.0879691
-0.041129604
-0.05553811
0.035292618
0.10447423
0.12185269
-0.020279061
-0.011300521
-0.049910456
0.059971645
-0.0011161274
-0.010317792
0.084296994
-0.041527182
-0.021536533
-0.025725886
0.019777603
0.017490782
0.07552007
0.025798019
-0.064054154
-0.05206922
0.12004392
0.1417807
-0.022049168
0.061498158
-0.050257698
-0.015433431
-0.07582887
0.019577425
-0.02259993
-0.0075318455
-0.0626273
0.024712391
-0.049395572
-0.10255423
-0.093738325
-0.13384083
-0.063951656
-0.043707844
-0.023713835
0.032563083
-0.035767794
-0.03124834
-0.08610605
0.060076624
0.048852157
-0.08656335
0.12774186
0.11423078
0.097440876
0.16547514
0.08502741
-0.05397172
-0.06954862
-0.118653044
-0.16573025
0.047264628
-0.04969785
-0.059879694
-0.08054207
-0.03069638
0.010208249
-0.06313449
-0.035221107
0.056882832
0.01401393
-0.032241598
0.04166561
-0.04277077
-0.020893613
-0.033990685
-0.053894076
-0.018232897
-0.118931845
0.047841314
-0.02045198
0.08118525
0.03586341
-0.04808328
0.025921274
-0.030535044
0.060514275
0.025176808
0.026394118
0.077264294
-0.055760935
-0.009299675
0.06246815
0.12279963
-0.029489947
0.0075226054
0.09164371
-0.048091512
-0.028606994
-0.051058415
-0.07229535
0.021829756
0.054770384
-0.03270546
0.007906204
0.04133391
-0.1753477
-0.08289419
-0.0653512
-0.13788277
-0.08949579
-0.015987666
0.04471048
0.15187772
0.02430307
-0.10990344
-0.011280859
-0.0022021662
-0.1134094
0.01834066
-0.04686749
0.14833726
0.10510302
0.04561014
-0.21327454
-0.11469522
-0.12803075
-0.11773673
0.069624335
-0.022272017
0.09906645
0.13387173
0.19955112
-0.030611146
0.024164667
-0.024988841
0.0012959953
0.06707164
0.050949004
0.08244745
0.07142386
0.007971018
-0.059954364
-0.12423758
-0.12213524
0.05314373
0.009405682
0.0014267217
0.06324338
0.052956138
0.068792306
-0.12180585
-0.090552025
-0.124711014
-0.17791584
0.050274506
-0.053241637
0.036623623
0.1234066
0.03798511
0.04826737
0.05514156
0.018606102
0.016664468
-0.012771465
-0.09547694
0.008307634
0.026071364
-0.013360956
-0.06858555
-0.08815105
-0.113948524
0.009216499
-0.0012572054
-0.059914578
0.069107205
0.061295625
0.123841085
-0.109588094
-0.043947134
-0.18239231
-0.03395518
-0.06435106
0.03892038
0.09012717
-0.0009853832
0.12304709
-0.07052728
-0.049853973
-0.018233197
0.01927552
-0.026120992
-0.045070212
-0.06510889
0.096784905
0.1148268
-0.26568857
-0.064092405
-0.12348056
-0.16758655
-0.13768631
-0.09425955
-0.010731318
-0.04653771
-0.03445354
0.0042841407
0.030001134
0.0437311
-0.017961426
-0.0003192582
-0.022615697
0.007139642
-0.01362049
0.015742708
0.08991569
0.03581456
0.026145253
0.003928592
0.081564106
-0.01699947
0.08233039
0.052847788
-0.04436329
0.055614542
-0.042439405
0.06527572
-0.029046584
-0.05616576
-0.04970203
0.025576798
-0.0073249443
-0.0035194368
0.03821856
0.07997278
-0.041738555
-0.05400413
0.02126386
-0.015934044
-0.0135475
-0.028624987
-0.02856303
-0.017495606
0.026287837
0.018145423
0.074350215
0.1091063
0.07828956
0.074670196
0.11548037
0.022613218
-0.03791226
0.05456209
0.039274942
0.05889619
-0.06990806
-0.08777018
0.021622555
0.00499203
-0.0020057228
-0.038362984
-0.0840317
-0.014946239
0.0339961
-0.06749027
0.030211879
0.03691841
-0.07764812
-0.10207361
0.016369505
-0.189995
-0.04686913
0.02132843
-0.08904674
-0.1197859
0.086198874
0.11102104
-0.06472357
0.043023564
-0.0029380333
-0.018320475
0.0036225035
0.03431517
0.07511377
0.048840668
-0.01711216
-0.035685997
-0.044500895
-0.076884724
0.037001234
0.10991562
-0.084008686
0.03253779
0.047618795
-0.0061879167
-0.013728203
-0.06775672
-0.08288876
0.099872485
0.013582544
-0.11070528
-0.069905296
0.12848048
-0.0398228
0.008004889
-0.0565061
0.0843266
-0.054360483
-0.06655653
-0.046706468
0.04100582
0.039470498
0.02136583
0.016835378
-0.054784976
-0.024121108
-0.015180477
0.0578425
-0.11358426
-0.0462927
0.055056952
-0.049444582
0.006117731
0.09429669
-0.109193146
0.053185243
0.085668564
-0.03082563
-0.03485025
0.06747841
0.08591914
-0.038846362
0.032930136
-0.007665493
0.08138919
0.058503773
0.030718295
0.06977091
0.12632751
0.07896787
-0.052123334
0.0747833
0.040247355
0.008058331
0.08736445
0.048856482
-0.05252957
0.012576577
0.111355096
0.061663218
0.07749
-0.049617518
-0.0149357105
0.009725482
0.02542049
-0.0204534
-0.018382194
0.1068848
-0.01862712
0.051222567
0.06728144
-0.07092569
0.012528059
-0.00806534
-0.045454238
-0.017647596
-0.015244309
-0.01878619
0.025276758
-0.009831814
-0.085599765
-0.010577579
0.021036267
0.0655317
0.025915733
0.042084537
-0.06862029
0.054916732
0.06932902
-0.026875386
0.035878517
-0.002090342
0.110922016
-0.076967925
-0.0693144
0.05731101
-0.08343295
-0.023257902
0.09387927
-0.02468195
-0.017139515
-0.013037312
0.029695945
0.07034637
0.07411044
-0.059933756
-0.0062600393
0.031531706
-0.09036903
-0.05711108
-0.04604535
-0.023047315
0.03600533
0.028407784
-0.07848341
-0.022299044
0.009928883
-0.08452931
0.031223144
-0.093918286
-0.040339027
0.054701857
0.07617025
0.0022695658
0.031239687
0.054348614
0.0008582499
0.109079264
0.0003905443
-0.13867913
-0.09675073
0.096787736
0.049810406
0.010417293
-0.029814323
-0.009911273
0.054883897
-0.056119524
-0.072382405
-0.073479965
-0.034273267
0.009245861
-0.008561712
0.017663931
0.05889412
0.017305566
-0.011869385
-0.076298736
-0.02254587
-0.019966794
-0.041798435
0.051188204
-0.03896434
-0.046624802
0.023874315
0.045607977
-0.112888
0.045341708
0.13065802
-0.04091025
-0.05053385
0.04941614
-0.08282947
0.07346782
0.039353453
-0.081188776
0.033741433
0.064631514
0.006287812
-0.078572445
-0.0062809284
-0.042837918
0.031450108
0.055298008
-0.0757562
-0.021844273
0.06215567
0.0043990784
-0.028186332
0.048818406
-0.05659871
0.07806136
-0.020463424
-0.076415636
-0.0889936
0.106299624
0.036611658
-0.04188715
-0.038979735
0.029544685
0.07366184
-0.012254712
-0.014887799
0.009766107
0.07233565
-0.08225801
0.06278074
0.083848156
-0.14089379
-0.0743756
-0.0031899407
-0.059463266
0.00022653198
0.039206393
-0.09283655
-0.052961
-0.03437367
-0.0005849299
-0.09377445
-0.045071263
-0.0073484215
-0.02796098
-0.11270009
-0.01770841
-0.1056386
-0.07125442
0.025053572
-0.086261064
0.08981479
0.060365282
-0.042277046
-0.007661211
0.026581543
0.050625373
0.008898643
-0.05845015
-0.024212694
-0.09579568
-0.0855119
-0.030853514
-0.015509181
0.051008787
-0.011160637
-0.079928726
-0.07310923
-0.033007596
-0.14772968
0.06875007
-0.10838866
-0.040916666
-0.05051002
-0.07022769
0.0482368
0.029512962
-0.08557213
-0.08738392
-0.07236965
0.050770286
0.09776949
-0.07000948
-0.09753036
-0.015023479
-0.11241555
0.050285727
0.14928287
-0.03455938
0.06506127
0.06940909
-0.0129048275
-0.09948001
-0.034402303
-0.116339
-0.11870666
0.040974155
-0.01566081
-0.17491907
-0.14982983
-0.119677134
-0.07938315
0.0658958
0.019567108
0.060073197
0.08968524
-0.08304336
0.057900764
0.044793323
0.06515544
-0.009326844
-0.008843333
-0.02977598
0.004019552
-0.057525292
0.00043938696
-0.026432315
0.040045246
-0.1603455
-0.017262463
0.19818228
-0.035313223
0.027705712
0.18457836
-0.086918786
0.07870697
-0.029547052
-0.12500726
-0.15453686
0.019898977
-0.11454117
-0.0053260135
-0.040956404
0.046198387
-0.030916732
-0.030225785
0.07000555
-0.02349835
0.087018214
0.042906214
-0.04027543
0.07253827
-0.0063097435
-0.07065936
0.059463557
-0.10972758
-0.12646611
-0.07242684
-0.091125615
-0.098350175
-0.042102776
-0.092704386
-0.07973239
0.008461711
-0.1297528
-0.10230955
0.07076746
-0.08636244
0.07943194
0.09208777
0.034750596
0.12650973
0.04073799
-0.08035243
0.0034553688
0.076786704
0.00075589604
0.009499145
-0.016119469
-0.05151321
-0.0430823
0.029209916
-0.015864886
-0.04725007
0.11986345
-0.017251426
-0.028087158
0.23421569
0.031943448
0.09067529
0.13863824
-0.124934524
-0.095339164
0.005680643
-0.0077610817
0.008829341
0.008343101
-0.12379333
-0.09972177
-0.033672042
0.01707496
0.09601715
-0.028280085
0.06523316
0.08603328
0.021084426
0.015939955
0.03228693
-0.013127228
-0.07463665
-0.022924628
0.028061394
0.04458668
-0.056057554
0.030108888
-0.08789855
-0.06681443
0.06381023
-0.046192493
-0.034104314
-0.11173074
-0.05676636
-0.12971708
-0.08090175
-0.09892698
0.060553942
-0.02752294
-0.06326066
-0.023897253
0.005046957
-0.066204116
-0.07688301
0.064801626
0.020313945
-0.026644718
0.0074820165
-0.04460988
0.082433656
-0.041450664
-0.054769095
0.09368857
-0.049986526
0.068466455
0.032424107
-0.08446929
-0.08582497
-0.075241946
0.097285345
-0.16592689
-0.04359324
0.042317957
0.02952236
0.051317696
-0.08552925
0.08064424
0.06070309
-0.14482573
0.08365693
0.040050015
-0.15289685
0.14963676
-0.07751092
-0.16720875
0.03248505
-0.044501297
0.021021336
0.007829494
0.0360626
0.06447118
-0.02716436
0.01786217
0.07505418
0.051315628
0.15492696
0.047682043
0.22436927
0.029189842
-0.17499432
0.039022323
-0.0016595584
0.0018149693
-0.10344946
-0.13009745
-0.08096208
-0.08067
-0.12268304
-0.14240327
-0.12094749
-0.05945899
-0.0015687511
-0.00019715914
0.0644929
0.091718465
-0.048252273
-0.023766082
-0.007291199
0.002611992
0.096213244
0.08173946
-0.13462913
0.016047657
-0.002808952
-0.04509173
-0.062888555
-0.040831674
-0.027146893
-0.0093023805
-0.041852415
0.07165637
-0.013078185
-0.08118951
0.1366541
0.08413482
-0.10229974
0.09479843
-0.031564727
-0.0731209
0.029107075
-0.059797894
-0.11444836
-0.015741674
-0.11986831
-0.009572091
-0.00035917287
0.008214358
-0.059159726
0.027419584
0.14281686
0.14740743
0.10245841
0.24090493
0.0031405552
0.11337146
0.06279082
-0.13451606
0.0707536
-0.007667173
0.029109595
0.096314944
-0.014843326
-0.04116943
0.05613257
-0.01982194
-0.08155303
0.06578038
-0.064367786
0.06800814
-0.08564532
-0.05323356
0.09185329
-0.06782888
0.018344624
0.026962958
0.07077692
-0.064459234
0.007857397
-0.06502965
-0.06361398
-0.04582421
0.07792922
0.07515321
0.07957737
0.112765215
0.13262093
-0.026687693
-0.097771995
0.04076746
0.08789164
-0.093934074
-0.020401329
-0.09303694
-0.053117
-0.021059165
0.07286911
-0.09075196
0.013857983
-0.046719678
-0.087324046
-0.08645482
-0.059797246
0.040577073
-0.028502783
-0.036558803
0.050811667
-0.018403731
-0.022906728
-0.096253894
0.03659832
-0.081789605
-0.04380043
-0.02926013
-0.07624793
0.06946815
0.12424167
0.035538305
-0.038437773
0.05213671
0.01757424
0.07891224
0.068535686
0.09510382
0.06249409
0.033992503
0.03430375
-0.12605232
-0.02155492
0.012770718
-0.0011737375
0.090795234
0.1017396
-0.10104889
-0.10900142
-0.07762132
-0.107730605
0.018376406
-0.008428343
-0.024707912
-0.065922715
-0.077953994
0.007972274
-0.004287934
0.026473312
0.03478118
-0.028526532
0.013382689
0.07436432
0.043315202
-0.08712122
0.11336957
0.15690786
0.0768764
-0.08136311
0.059405345
0.010029025
0.046160012
0.023150735
-0.009165053
-0.0071162214
-0.036985986
-0.07451553
-0.07530476
0.025166418
0.07019689
0.020484185
-0.040535588
0.045036424
0.01670939
0.11076798
-0.0055502364
0.014301852
0.035251036
0.05499952
0.0011180913
-0.0013771551
0.009809305
-0.062108763
0.105515204
0.0021470007
0.011898277
-0.05829584
0.0438521
0.05484629
-0.008474484
0.013674446
0.047910355
0.10723631
-0.047950767
0.0013297703
0.09370324
-0.035273533
-0.043010853
-0.11758489
0.027870905
-0.06775008
0.013750506
0.038082648
-0.092261225
-0.07628842
-0.01629743
0.103917636
0.052662604
-0.013553282
-0.0060366103
0.16199706
0.04162873
-0.057502512
-0.03789359
-0.016652789
0.024244577
-0.06380794
1.1394411e-05
0.014752947
0.04129191
-0.09667373
0.009790997
-0.05793975
-0.031080766
0.013781925
0.047608864
-0.0007087369
0.03535498
0.0027493855
0.06762266
0.055379793
0.047171406
0.06754859
-0.08800871
-0.06300855
0.09410196
-0.07277461
0.033711676
0.004133682
-0.031302378
-0.006118377
-0.044546206
-0.08658095
0.0025497251
-0.02819568
-0.040274717
-0.054577332
-0.09770185
0.026897583
-0.03317596
-0.079836935
-0.026622908
0.008843056
0.12909395
-0.05810883
0.028748201
0.11342785
-0.18995711
-0.10424248
-0.042950444
-0.033027556
-0.01060428
0.08772391
-0.08604902
0.08024896
0.17902681
-0.119925246
0.020357689
-0.065018676
-0.0077777123
0.035644226
0.15527956
-0.21419223
-0.005942621
0.106556565
-0.15784164
-0.102276
-0.009644261
0.05536002
-0.063536935
-0.0021320865
-0.00921459
-0.04872344
-0.068352886
-0.04887145
-0.050178662
0.036077324
0.010160343
0.08863372
0.07392759
-0.02547488
-0.07023023
-0.0027362544
-0.087908305
-0.117272735
-0.10762483
0.099226005
-0.037488807
0.15352985
0.01551386
0.11882047
0.100793354
-0.12946574
-0.03566033
-0.13342772
-0.06958468
-0.026592698
0.0026806826
-0.012610228
-0.026596138
0.09771855
-0.014026222
0.046110958
-0.08540776
0.051361214
0.0745151
0.09964061
-0.042015772
0.053421993
0.11235738
-0.0974907
-0.06458877
-0.024282578
0.0059083453
0.069995105
0.13982506
-0.025323998
0.037201762
-0.024834435
-0.04001298
-0.055514917
-0.11816083
0.03106253
-0.013589041
0.013547623
0.020924665
0.010985254
0.06800565
-0.046280786
-0.048465975
-0.085601784
-0.06837308
-0.035231594
0.00026667683
-0.18900363
0.021446304
0.05592411
-0.22980641
-0.07557441
-0.07675268
0.012049452
0.061476342
0.0040944996
0.033470567
-0.06569848
0.01467196
-0.03913842
0.062543854
0.018206425
0.08040481
-0.01673743
-0.08594363
0.06850338
0.042773757
-0.077456705
-0.02850427
-0.08200979
-0.0642294
0.065222844
-0.035637278
0.053948987
-0.073641516
0.0151559375
0.08616275
0.0030074136
-0.07321252
0.06889233
0.027679196
0.086492404
-0.058019377
0.055841308
0.08848012
-0.07452701
-0.010996102
0.031529743
0.021501293
0.070642315
0.02544758
-0.03976981
0.087585315
-0.06085226
-0.024109704
0.08298061
0.0361155
0.013489279
-0.068714045
-0.036564916
0.081598714
-0.014545483
-0.008816891
0.014737997
0.06628988
-0.07414274
-0.04447512
0.049085494
-0.07128488
0.020562056
-0.05706754
-0.011612798
0.005798747
0.051424544
0.017132076
0.033381086
-0.113420576
-0.10771839
0.03298639
0.015673965
-0.046545018
0.09936859
-0.025211828
-0.01756846
-0.040922534
0.05547562
0.05025223
0.051584948
-0.05929362
0.05118059
-0.0509399
0.0852181
-0.042897806
0.061794203
-0.0039509432
0.010300688
0.07131706
0.05983889
-0.0822314
-0.049209718
-0.065010004
0.004704913
0.06759622
0.037469976
0.034362298
0.0020967352
0.09716537
0.07386492
-0.0635588
0.05635633
-0.014816809
-0.04035059
0.043594036
-0.03349891
0.029119229
-0.050126594
0.022506412
0.022770602
0.032322247
0.026678262
0.05974907
-0.0153116975
0.036309313
0.06066493
-0.058290105
0.078557625
0.022354415
0.047258355
0.04830921
0.0187879
-0.050954226
-0.06756233
0.09203828
0.09279327
0.07180207
0.086502165
0.05626733
0.037829738
-0.010653215
0.014540941
-0.0053999503
0.10483995
-0.04824833
0.0010157893
0.0076467018
-0.06966227
-0.044975426
0.08286437
-0.038527496
-0.040445674
-0.049748093
0.010751202
-0.05484925
-0.08336159
-0.012056233
0.05449649
0.07311571
0.03577089
-0.03035762
-0.09832758
0.058776006
-0.06535064
-0.09936872
0.0367248
-0.10141319
-0.086415984
-0.10213891
-0.014669445
0.10885295
0.039422844
0.03819111
0.15990232
-0.03150349
0.0041004936
0.07146362
0.02450116
-0.001070659
-0.08795099
0.029487964
-0.056862086
-0.005656054
-0.036652084
0.04434023
0.032401744
0.003963938
-0.09500364
-0.09550323
-0.05238802
-0.12215105
-0.13779542
-0.025268704
-0.056303315
-0.114815876
-0.09969066
-0.08543984
0.032209612
-0.09160262
-0.027775984
-0.026059475
-0.009935093
-0.06616803
0.020352978
-0.015005598
0.09680141
0.013170432
-0.014881916
0.025372658
-0.019803448
-0.05786937
-0.033429153
0.0940582
-0.048418324
-0.060020458
-0.059269004
-0.050123032
-0.15495047
-0.14533807
-0.14935175
-0.04254467
-0.03588414
0.065514445
0.17535734
0.05699739
-0.089154735
0.19164526
0.026576132
-0.036746796
0.16223258
0.105460554
-0.06905015
-0.10844199
0.06004122
-0.090491734
-0.0282036
-0.05198323
0.010278757
-0.11848592
-0.082103044
-0.04060462
-0.004502289
0.0750336
-0.051765364
0.18827957
-0.025386011
-0.09115538
0.080203064
0.10165098
0.08614187
0.050249454
-0.10880903
-0.08615652
0.01877138
0.023545405
-0.021407664
-0.025095392
-0.12644294
0.008730314
-0.08830914
0.004999127
0.047986396
0.019685473
0.05983763
0.061815467
-0.019266423
-0.051815372
-0.0032969967
-0.060944334
-0.12185182
-0.025204217
-0.11893983
-0.015913064
-0.10465244
-0.0682459
0.018118637
-0.037124656
0.08782141
0.049542278
-0.007839926
0.026633052
0.09320726
-0.0903735
0.06102147
-0.057733063
0.055447057
-0.0037050687
-0.08639645
0.0702388
0.078086756
-0.07498516
0.08861262
0.0069509675
-0.07711593
-0.034079067
0.02615329
0.1256835
-0.14910062
0.12989242
0.15476458
-0.14521606
0.068926744
0.040507562
-0.058490817
-0.064934656
-0.009697191
-0.029949574
0.07872163
-0.020931909
0.058150385
0.056820527
-0.038815152
0.06312614
-0.01468517
-0.08021448
0.017230405
-0.02724419
0.032894246
-0.07362359
-0.004306565
0.07997934
-0.032284215
0.04950288
-0.02006725
0.036343858
0.07911595
0.033106063
0.031422053
0.026954724
-0.08277349
0.06741462
0.011273375
0.0011695053
-0.04886513
0.03401046
0.02686389
0.00429261
-0.028886018
-0.017254835
0.075111605
-0.037278894
0.079724036
0.0029895816
0.028888548
-0.025472265
0.055200916
-0.032479856
-0.062584884
-0.026842019
-0.043829326
0.04517339
-0.036342382
0.010043406
0.01942081
-0.023628706
0.04085681
-0.08174375
-0.01640349
-0.049255412
-0.028412368
0.037515327
-0.0150511395
-0.037975065
0.07210626
-0.030027715
0.024168659
-0.04529304
0.051837906
-0.05201649
0.0150013035
-0.047600616
0.05680032
-0.038190357
-0.079598315
-0.053382315
-0.07367086
0.020146739
0.0076869773
0.03247976
-0.033243645
-0.008180951
0.05901758
0.019540552
-0.03789876
-0.0076356498
-0.06760364
-0.0024001987
0.07090833
-0.037658986
0.0484329
-0.038562223
0.05589329
0.04947903
0.018017974
-0.056482125
-0.034030475
-0.037158377
-0.055020656
0.058463737
-0.08792075
-0.076641
-0.014251797
-0.06807088
0.0659585
-0.04990114
0.05384014
-0.033881024
-0.0746953
-0.018371841
0.049714327
0.015784677
0.029062025
-0.040553533
0.038613085
-0.06809103
0.0671312
-0.014765981
-0.009458655
0.022393148
-0.08060609
-0.03497028
0.005694948
-0.07133102
-0.04952929
-0.064344764
-0.01828186
0.04088366
-0.063203484
-0.043986592
-0.043663945
0.047053907
-0.0016413403
-0.05976537
-0.033327915
-0.06233481
-0.051474366
-0.030753095
0.07545874
-0.0560821
-0.043661874
-0.03504635
0.076076925
-0.07757009
0.041289683
0.04776291
0.044160753
-0.020620478
-0.043454908
-0.07494756
-0.013303389
-0.004152032
-0.085174575
0.02646064
0.047757007
-0.08943311
-0.10849811
0.023485227
0.0392076
0.036457743
0.10339202
0.021476049
-0.013654594
0.10074231
-0.022374474
-0.018508155
0.035340544
0.040183812
0.05392326
-0.07557909
-0.045017432
-0.055708565
-0.0011716934
-0.09528324
-0.10010784
0.03686969
-0.0785129
0.04190618
-0.07408131
-0.016480183
-0.021499384
-0.0722808
0.01678125
-0.061785173
-0.034013767
0.014929943
0.049447227
0.012439003
0.08827785
-0.08730105
0.0454705
0.083668225
-0.09350717
-0.060710866
0.039652504
0.07849235
-0.060464103
-0.013509235
0.07984173
-0.0063065635
-0.089555286
0.006342783
0.017749337
-0.029948335
-0.026399896
0.042934198
0.054059338
-0.03823504
-0.009092267
0.028470984
-0.11094318
-0.0027655982
-0.096637726
0.118737
-0.050213143
-0.05373856
0.061208364
0.06661389
-0.03113411
0.073619165
0.03178251
-0.07916011
-0.051551197
-0.06595517
0.023932286
-0.09070128
0.07804
0.06170135
0.003941914
0.05245409
0.006134306
0.11975137
-0.050560478
-0.089632094
0.07870563
-0.058568858
0.04403926
0.11383146
-0.10543738
0.01350467
0.037789106
0.07152498
-0.010872675
-0.013197227
0.0752161
0.044513755
0.05757707
0.015350084
0.059122548
0.06285337
-0.023141319
0.056712747
-0.06437633
-0.04411304
0.036952484
0.04139092
0.030942734
-0.054627374
0.0026599506
0.09486996
-0.08393457
-0.06397742
0.081571296
-0.02741723
-0.01682424
-0.09729796
-0.0351748
0.03535185
0.052702133
-0.008503903
0.103287555
0.013346629
-0.06634448
0.11137424
-0.04740211
0.05829157
-0.023043536
-0.0031455674
0.040696625
0.0999476
0.05443005
0.051535632
-0.012356113
0.035333417
0.036065876
0.1036258
0.13413121
-0.009291086
-0.0185502
0.07845787
-0.05910507
-0.06074062
-0.05369831
-0.12904996
0.008551975
-0.015080016
-0.09650731
0.034013316
0.018354459
-0.016328897
-0.056909807
0.0525912
0.12953992
0.0835546
-0.019265577
0.0468338
0.15126334
-0.03435735
-0.02346497
2.9666982e-05
-0.09206675
-0.028069504
0.053093757
-0.068836235
0.030812928
-0.07235363
-0.07399454
-0.009539511
-0.017214589
0.00026034968
-0.06783733
-0.024718571
0.043824848
-0.113537885
0.018768307
-0.06926287
-0.01414871
-0.06457692
-0.06638889
-0.07668518
-0.00875608
0.015380572
-0.052518737
0.016358567
0.048151627
0.049408376
0.042728163
0.011331264
-0.07243371
-0.023913939
-0.07109887
-0.007502146
0.08580002
0.026360052
0.021187901
-0.100978054
-0.037449896
-0.06197672
0.03187971
-0.096767716
-0.12733665
-0.051945914
-0.1155454
-0.026988884
-0.15738477
-0.040413644
0.11960661
-0.07111613
0.052294612
0.034620754
-0.04348389
-0.03297713
0.08481194
-0.025524164
0.028587995
0.034840308
-0.023288574
0.025340617
-0.045991994
0.08147527
-0.052570425
-0.0019061792
-0.015785148
-0.0060007744
0.0705039
-0.014530331
0.105187066
0.18864775
-0.003655597
0.10959868
0.09626705
0.051220965
-0.03926136
-0.050738502
-0.036617607
-0.060909044
-0.018617213
0.05938704
-0.04972291
0.025728855
-0.042968076
-0.08460281
-0.06639711
-0.02367894
-0.008344731
0.085160434
-0.009444096
-0.014810607
-0.048172627
0.03453404
0.025863146
-0.042338427
0.05089758
-0.076381
-0.042408187
-0.024265524
-0.0018305487
-0.058351584
0.02882381
-0.071877055
0.10763191
-0.06939788
-0.06959754
0.022919029
0.005631748
0.091686614
0.064879194
0.05535968
-0.009996154
0.050006285
-0.0685002
0.11086941
0.03522754
0.034893632
-0.058768168
0.018059371
0.07440702
-0.015494176
0.11070683
0.115790896
-0.15249524
0.10922087
0.04860158
-0.0045803166
0.07320455
0.031325035
-0.03435913
0.011276913
-0.02721804
0.06781672
0.04019725
-0.044315204
0.11500723
0.0042627105
0.029319817
0.13435988
0.1391929
-0.015093217
-0.051072568
0.07191064
0.06627165
-0.028726155
0.041054092
-0.0632514
-0.00022052103
0.026237074
0.026931038
0.06471077
0.054120276
0.041001216
-0.0644704
0.0026622207
-0.0119926585
0.009559027
0.07268842
0.09896382
0.026495162
0.015265322
0.060351647
0.066225216
0.035854995
0.009408457
0.06079829
0.09261488
0.034852926
0.046802554
0.08398207
0.08735433
0.056916688
0.0014282517
0.06478708
0.07943453
0.028321367
-0.13808703
0.0676009
0.030906428
0.054345284
-0.026869778
-0.05306805
0.076964594
0.050511405
-0.012888985
-0.002649899
-0.102007456
-0.013677706
0.048491795
0.106246196
0.024719346
0.11191675
0.11244974
-0.002794648
-0.019620938
-0.064606465
0.059438832
0.13547397
-0.048406087
-0.03664523
-0.045844957
0.030863557
0.1075209
0.031981926
-0.041636903
0.06252552
0.047280367
-0.007030614
0.05054693
-0.08960068
-0.002274926
0.05475462
-0.08556063
0.06324542
-0.03718394
-0.071228884
-0.08127127
-0.1108705
0.048178308
0.21081379
0.10390075
-0.12501653
0.11732738
0.11907935
0.115181886
0.09042172
0.092745446
0.1624183
0.0575516
-0.10002155
-0.07134619
-0.083804935
-0.027569339
-0.015852217
-0.017928371
0.012037232
0.011551776
0.100139864
-0.023013199
0.027309468
-0.08112716
0.020216791
0.05310885
0.048813995
0.03265466
0.04565182
0.07108296
0.027927041
-0.083042696
-0.0760167
0.01496164
-0.016959637
-0.079284206
-0.054721564
-0.062085066
0.09293453
0.012622216
0.052950744
0.08441598
0.12232149
0.03736295
0.004251367
0.08764289
0.042550456
-0.026206538
0.017713197
0.009952706
-0.08087028
0.010869934
0.055195734
-0.08058207
-0.09008496
-0.08473452
0.0016020208
0.034622062
0.027685804
0.12296152
0.076266274
-0.061642762
-0.009997642
0.0031037822
-0.04251083
-0.036306627
-0.066765636
-0.005036987
0.029955272
0.048096634
-0.058569517
-0.031274438
-0.054159943
0.05009753
0.050046086
-0.055713434
0.018102648
0.03925357
0.008362397
0.08302848
0.019305024
0.038171694
-0.06919104
-0.028476607
0.033446107
-0.07037798
-1.742119e-05
0.0008585673
-0.024252066
-0.05463625
-0.06798174
0.07293029
-0.030661194
-0.031341203
0.023340197
0.008003894
-0.0057234797
0.032671187
0.058420245
-0.07289899
0.0043577584
0.06776111
0.11066171
0.14347748
-0.17154175
-0.04933043
-0.04806289
-0.05449777
-0.031683672
0.0002974476
0.11385106
0.10864446
0.11887143
0.015742747
0.11140478
-0.005975702
-0.08997372
-0.10523663
-0.06119908
0.07457801
0.13522878
0.11728034
-0.13825548
-0.023722356
-0.048842352
-0.0075297253
-0.0391921
0.015444152
-0.10770633
0.025746502
-0.09442365
-0.050190546
-0.036376897
-0.04262699
-0.070884705
-0.015307729
0.061119013
-0.04193286
0.018191963
0.020476177
-0.1391865
-0.032878973
-0.015741328
0.02702971
-0.0036000262
0.026317995
0.17492972
0.17929672
0.051985867
-0.08460664
-0.03258295
-0.12230232
-0.11869579
-0.08682786
-0.043967277
0.008054124
-0.053379595
-0.008635103
-0.017121231
0.029726915
-0.028279444
-0.038486503
-0.05741341
0.065928675
0.08244601
0.03708916
0.047394086
-0.066414766
0.04256705
0.027398225
-0.04949294
-0.05828024
0.04982982
0.102130674
-0.0063766497
-0.014518122
-0.0014492789
0.033032335
-0.02830338
-0.0064103627
-0.009085292
-0.01587656
0.16748661
0.09684701
0.06455938
0.074721485
-0.045888353
-0.023357097
-0.033574034
-0.10153112
-0.034852404
-0.057563286
0.04800905
0.09686603
-0.16438514
-0.066505484
-0.09254689
-0.14217481
-0.07148013
-0.041508
0.028438566
0.07307805
0.00053360866
0.06330627
0.06613279
0.03554204
0.056658544
0.051968686
-0.05450399
-0.03714061
-0.019502966
-0.06424717
0.073835835
-0.038792815
-0.07605262
-0.09328929
-0.06839722
0.07830544
0.043021515
0.021261804
-0.02809374
-0.03585579
-0.0378634
0.064553894
-0.02912884
0.072142534
0.04484278
0.002601995
0.02842922
-0.009312462
0.039561495
-0.027752105
0.06202704
-0.075961426
0.060670003
-0.01020179
0.0050824923
-0.039183848
-0.08615754
-0.068316616
-0.054062553
0.01648036
-0.08036522
0.04063896
-0.007159162
-0.03627156
0.01705768
-0.077577405
0.03201534
-0.08815318
-0.10449019
-0.031210149
0.08156536
0.000391817
-0.013599222
0.047685772
0.03642505
0.14887205
0.007362979
-0.09649433
0.016699176
-0.026121324
-0.06468647
0.11637597
0.01871311
-0.042828165
-0.04577566
-0.07745948
-0.08854944
-0.122022316
0.06564459
0.09093973
0.07892317
-0.058318168
-0.019430099
0.06272381
0.0004993334
0.053814743
0.063188896
-0.008222981
-0.051569045
0.04892808
-0.0071630063
0.003656274
-0.10851797
-0.04782209
-0.08609133
-0.07474038
0.0971171
0.12129591
-0.053365488
0.035252836
-0.02449895
0.031644307
-0.07176996
-0.036182903
-0.028854277
-0.0055357674
0.05789183
0.03492503
0.028822232
-0.026826093
0.013101324
0.074441865
0.057397142
0.05268871
-0.05350263
-0.0028260697
0.04701303
0.09173131
0.04031618
0.111043625
-0.082196
-0.056190915
-0.043036312
-0.047847424
0.049107887
-0.017127402
-0.065389305
-0.03597095
-0.04258394
0.022486193
-0.043612238
-0.09992453
0.013076066
0.07691814
0.023863094
-0.01795213
0.03620414
-0.035988256
-0.07494623
-0.11131249
0.039672725
-0.079220496
-0.016439963
-0.03383605
0.102846496
0.033075806
0.09974089
0.0016238631
-0.0023417494
0.028849965
0.00020760096
0.076684125
0.04288869
-0.095571935
-0.03390714
-0.064957306
-0.14382118
-0.04022344
-0.13581827
0.006055855
-0.096197225
0.052182224
-0.086620726
-0.0276648
-0.0018904312
-0.069342
0.08308428
-0.023751235
-0.044864476
-0.048060916
0.016971251
0.0053771404
0.07263514
0.06606992
0.042784497
-0.052686483
-0.020198844
0.072924584
-0.054651156
0.008742657
0.09040669
-0.054711744
-0.083181106
-0.11979208
-0.07459308
0.052933913
-0.040318042
0.054191414
-0.031403776
-0.07752736
0.008252647
-0.12914512
-0.030467011
-0.0027005088
-0.007451254
-0.054044798
-0.08031204
-0.11263487
-0.01690421
0.028083615
-0.10764372
0.018320985
0.1510765
-0.012024089
0.092871435
-0.12666176
0.010113758
-0.10246986
0.014654983
0.010499955
0.16828075
0.09493347
0.1255947
0.28298184
-0.040665265
-0.18901326
0.03863028
0.020622091
0.011311796
0.13005383
0.06051258
0.12008781
0.016101068
-0.20190103
-0.061144553
-0.0077186422
0.07836265
-0.08076885
-0.09437962
0.0036550052
0.062637314
-0.11149736
-0.038095847
-0.0085939905
-0.015479602
0.06844725
0.002912283
0.17050116
0.036869276
0.084462516
-0.08025051
-0.024439435
0.0057230433
-0.12924993
0.016330658
-0.17802227
-0.10921555
0.063283816
0.010641399
0.035072565
-0.10299552
-0.032668673
-0.08499561
0.048140574
-0.016562385
-0.0041806125
-0.010452009
0.004278734
0.10559249
0.02276964
-0.081595264
-0.028702468
0.106659025
-0.020023743
0.060531892
-0.0033344144
0.06318404
0.09833072
0.038765244
0.010661964
-0.039569408
0.09387947
-0.04239604
0.053708237
0.038476877
0.063863374
-0.035600748
-0.10167405
-0.02492032
-0.028399812
-0.072895385
-0.118306965
0.016292665
-0.120068796
0.017282264
-0.054105874
-0.026225427
0.016188165
-0.10475172
0.004744068
-0.07734449
0.2104208
0.14295107
0.21059287
0.07229858
-0.13870834
0.0649035
0.023850985
-0.026037414
0.0607942
0.04857388
-0.06471301
0.08026721
0.086089894
0.07035217
0.068741724
-0.023027435
0.034313597
0.037375983
0.06740059
0.0022733114
0.02766903
-0.008599511
-0.009720363
-0.010378387
-0.013959669
0.076337695
-0.0363408
-0.03143741
-0.004403245
-0.0073267785
-0.088596575
-0.053170737
0.0072748414
-0.0060655945
0.08566369
-0.0049043116
-0.0065190014
-0.04164257
-0.048625093
0.044446073
0.04587384
0.0442476
0.01741327
-0.00087190175
-0.025904335
0.054940566
0.11099039
0.08397813
0.08574727
0.004093068
0.014480992
-0.0074737202
-0.03289504
-0.038754717
-0.060896687
-0.07687936
0.059655488
-0.020646408
-0.06774876
-0.02003045
-0.04702508
-0.03459202
-0.043044157
0.04329049
-0.02312058
-0.064167894
-0.05839454
0.07885407
0.026814047
-0.026806377
-0.03611909
0.010393389
0.07209871
0.08227553
-0.09786665
-0.077876925
0.040768497
-0.065769784
0.052730348
-0.0068834336
-0.07656192
-0.06662304
-0.009752692
0.043660376
0.016646484
-0.052287817
-0.04589593
0.066856615
0.018420136
-0.07878569
-0.022719039
0.0071787876
0.051298074
-0.08041118
0.06566197
0.08923183
0.08188797
-0.029413467
0.03547499
0.0003085732
-0.037739847
-0.070061795
0.06320789
-0.034406748
0.0036131185
-0.02190913
0.01294602
0.026031634
-0.017597934
0.06483313
0.041506615
0.07622406
0.08080223
0.043727413
-0.06145979
0.056856833
-0.055992585
-0.010320479
-0.03725031
0.0154677415
0.047095772
0.06520956
-0.04094693
0.098273925
-0.08056106
-0.016273325
-0.051913384
0.061804734
0.027950494
-0.0130295325
0.068663396
-0.072659016
-0.041406117
0.006325191
-0.029982155
0.0743145
-0.0492962
-0.062139153
0.036052123
0.04202111
0.0057927663
-0.02948895
0.1170757
-0.09711207
-0.027770108
0.11329127
-0.026775673
-0.043960262
0.006870021
0.09592423
0.01870224
-0.03008401
-0.04442121
0.033369623
0.08316999
0.015440946
-0.02528981
-0.009248822
-0.08720674
-0.0570722
-0.0016224833
0.06865332
0.04698106
0.06677404
0.022205431
0.021462245
-0.011533662
0.017294386
0.043788835
-0.030241162
-0.03393117
-0.06991132
-0.0074532065
0.054313555
-0.04815742
0.06342146
-0.06392681
-0.0736893
0.06347009
0.05132147
0.07499313
-0.018787576
-0.05014244
-0.051701587
-0.054262374
-0.084513895
0.020918077
0.071569994
-0.010926163
-0.025374945
-0.097571075
-0.08462102
-0.028937899
-0.079539105
-0.04551036
0.031355243
0.049404334
-0.08067642
0.005574882
0.105551384
0.059724234
-0.06438269
0.009669443
0.094584025
0.045716852
-0.11587294
-0.025794292
0.07353017
-0.0018489042
-0.052654263
-0.007941077
0.015555655
0.014814114
0.100055724
0.008718383
-0.10059499
-0.09118828
0.028539786
0.059099305
-9.967051e-05
-0.033643946
-0.07168317
-0.021519197
0.007940101
-0.046814367
-0.022334194
-0.06609233
0.080816165
0.016888406
-0.036850113
-0.029605748
0.049340326
-0.03436706
-0.047637306
-0.015624542
0.04159617
0.03260627
0.047996875
0.086008795
0.10224653
0.08367259
0.101246916
-0.022406163
-0.05693937
0.12960593
-0.09634412
-0.004761102
0.003431269
0.0022590286
-0.09120559
-0.04762299
0.042410072
-0.057951905
0.0036245126
-0.023055399
-0.03999436
0.0016462599
0.0651775
0.03995945
-0.06725172
-0.05518499
0.019262275
0.07302655
-0.02433326
-0.03947085
0.031800345
0.051133435
0.006508979
0.006211694
-0.024699239
0.015736273
0.06500461
-0.010222965
0.054532096
0.026109548
0.0341133
0.028457355
0.04936618
-0.036957413
0.022673234
0.025980094
0.039322283
0.035786238
-0.03444311
-0.07371771
-0.035513848
-0.059005894
-0.11426966
-0.035291165
-0.0122313
-0.0037580403
-0.019822314
0.007241551
0.059515648
-0.018057356
-0.072580494
-0.049479224
-0.017240569
-0.048890747
0.04322317
0.020040547
-0.07783691
0.058250997
-0.10109567
0.062071625
-0.05269435
-0.09344212
0.007440978
0.050197046
-0.033558812
-0.03460264
-0.00861325
-0.03682453
0.0761622
0.0707767
-0.018070789
0.06490633
-0.04205111
0.009414732
-0.008796069
-0.04957242
-0.08112588
-0.009415596
0.004808418
0.06622067
-0.02361576
-0.009203632
-0.0501763
0.04080125
0.07564153
-0.023409728
-0.059170213
-0.04144543
-0.043570276
0.02113113
-0.0023781995
0.0074462197
-0.008599807
0.028809752
0.093485475
0.041616663
-0.0050898935
-0.014314998
0.13751432
-0.004812755
-0.034756023
-0.020380123
0.09358418
0.03300648
-0.042416587
0.09638876
-0.013615838
0.021938372
-0.004747668
-0.027810847
0.0360489
-0.02826886
-0.039690815
0.09281967
-0.16863494
-0.04405377
0.11477319
-0.10971902
0.04334658
0.04944985
-0.010696114
0.0033244537
0.053181645
0.017256552
0.0048633697
-0.089014195
-0.055236068
0.027491271
-0.0734886
0.0027066988
-0.12329069
0.103878245
-0.002854583
0.08385372
0.16597451
-0.020578
0.050066546
0.028043846
0.058913577
-0.0436696
-0.00012736951
0.0034170346
-0.12137604
-0.011811585
-0.10008584
-0.11381105
0.06330812
-0.0355657
-0.024797292
0.04546517
0.008751376
-0.06615593
-0.0031515227
0.046202652
-0.013322683
0.02342703
0.03782279
-0.03675575
0.027035568
0.051910024
-0.0528058
-0.0026013493
0.041090466
-0.026119882
0.0041468125
-0.083937556
-0.020544438
0.06595101
-0.06760917
-0.053511858
-0.004309696
-0.07294221
0.07623116
-0.044014983
-0.0149709685
-0.014999377
0.08766848
-0.0912382
-0.0004510054
0.06072356
0.047622908
0.07420041
-0.029026564
-8.340232e-05
0.05939323
-0.058971263
-0.08905023
-0.0018079623
0.13292636
-0.12267442
0.009462907
0.12470688
0.018778186
-0.03688098
-0.03412603
-0.0003094583
0.033319026
-0.06074791
-0.02310315
-0.006345914
-0.094194606
0.057146683
-0.037710346
0.038570452
0.0014162654
0.022078972
0.07598007
-0.050664064
-0.028034596
0.053520884
0.028089568
-0.015318891
-0.017737096
-0.04296544
0.035185933
0.05942709
-0.053244866
-0.02622173
0.076804206
-0.0640926
-0.019714743
0.009749035
0.017496124
-0.033590574
-0.017561106
0.026924804
-0.026706116
0.019131541
0.079681136
0.07558281
0.050120637
-0.012840752
0.06742369
-0.08338504
0.07511012
-0.05178354
-0.009340249
0.04799284
-0.037881896
-0.024248349
-0.06381441
0.09762105
-0.031018918
0.005678278
-0.029223865
-0.047848403
0.06773286
0.057036966
-0.06456162
-0.0487252
0.11716913
-0.0131502645
0.0729585
0.094235376
-0.078564614
-0.10734668
-0.0022519806
-0.029475836
0.05052111
0.033522498
-0.020982457
0.08013406
-0.063946664
0.010125522
0.06555186
-0.014581237
-0.028149249
0.061548665
-0.0058207265
0.024291608
0.049803983
0.053516246
-0.086931005
-0.05323597
0.026375467
-0.065085955
0.035022695
-0.02416398
0.0057165786
0.068088956
-0.10295954
0.059977062
0.041611493
-0.06930697
-0.011936729
-0.07108708
0.07453093
0.07589436
0.04305529
0.073526785
-0.07304731
-0.07048391
0.012372747
0.049176417
-0.021214936
0.06461983
-0.06785109
0.06427854
0.026463425
-0.026871014
0.0669964
-0.08418933
-0.027505489
-0.06184208
0.09922138
0.08550706
0.08269829
0.0006492011
-0.078891225
-0.02456453
0.052203983
-0.040926516
-0.054305192
0.03824645
0.026008485
0.08246087
-0.08196096
0.046637524
-0.016481362
0.07964535
-0.011364382
-0.013154037
-0.05906517
-0.01945637
-0.09763655
-0.035395656
0.032654144
-0.070911236
0.005260104
0.044536836
0.03398195
0.05114502
-0.083821125
0.09041633
0.080004826
-0.047374133
