10
800
0.024803065
-0.0010474053
-0.013539894
0.0021341718
0.033072315
-0.033796243
0.03395261
-0.032405477
0.047184754
0.00292784
-0.012448442
-0.036383368
0.03401085
-0.069057584
0.018860178
-0.025446434
-0.022963054
-0.038964733
-0.0061230487
-0.010017315
0.027061123
0.0029216404
0.0631833
0.031887125
-0.010980532
-0.024426665
-0.042425733
-0.031123903
-0.10956791
-0.04889235
-0.0005245149
-0.040974166
-0.010317641
-0.075405814
-0.07296968
-0.010165041
0.006485829
0.03408444
0.015672818
0.00022196963
0.006139099
0.00071208127
0.012993179
0.04232926
0.07423996
-0.021078438
-0.036634542
0.028122718
-0.05969059
-0.026180074
-0.0338466
-0.026076127
0.007472139
-0.028040176
-0.02339448
0.03659051
-0.006515026
0.026148058
-0.01582546
-0.030010382
-0.013027162
0.021747913
0.014886281
-0.034547813
0.0065217903
-0.027600266
0.035486463
-0.039957535
0.0020985317
0.020875731
-0.027844936
-0.03083693
-0.0011080962
0.0077698887
0.027919482
-0.009268993
0.032338563
-0.0075706816
-0.0017697073
-0.03410764
0.014507225
0.011636167
-0.022181625
-0.019572854
-0.012568821
0.011210234
-0.01311624
-0.07271184
-0.15365025
0.0198254
-0.022252964
-0.049476
-0.0018221219
-0.05707795
0.009132028
0.0018256151
-0.013100985
0.13260229
0.030326746
-0.044134535
0.009309971
-0.021716164
0.0154740885
0.0061855805
-0.018221576
-0.029186193
0.011306578
-0.03680244
0.0056850435
0.046356622
-0.0236361
-0.039702695
0.011365149
0.015702121
0.02164832
-0.011809544
-0.015079458
0.023956843
-0.013158731
0.040571965
-0.032904923
0.041283753
0.0028991217
0.010640792
0.013954438
0.012896866
-0.019501608
-0.011652482
0.008347944
-0.039361753
0.015700774
0.0051699816
-0.013044771
0.10147377
0.019980984
-0.016081495
0.011458529
0.018004598
0.027065784
0.033012662
0.018631605
-0.0068401056
-0.1283509
-0.011246256
0.05840527
-0.004472661
0.13908963
0.056647506
-0.06057482
0.027499428
-0.029441947
-0.043690432
-0.008571374
0.0038226428
0.038225435
-0.010898843
0.0020013442
-0.038666353
0.04074453
-0.008286364
-0.0018807964
-0.021430422
-0.04461611
-0.03540397
0.014563447
0.00344046
0.0133229
0.00064418535
-0.013338207
0.033153996
-0.003718892
0.0781204
0.031231834
-0.00019807747
-0.06114016
0.018558372
-0.03281389
-0.020239297
-0.027798424
-0.027902056
-0.0041555935
0.025520694
-0.054002814
-0.012305364
-0.04389185
-0.031181121
-0.026086548
-0.083892055
-0.00899574
-0.015091844
-0.025026564
0.0055434303
-0.04429154
0.07843957
0.08171166
-0.015839577
-0.010076907
0.042284418
0.12979704
-0.00796596
-0.019784745
-0.018448416
-0.012398159
0.015048975
0.017629847
0.025075473
-0.020587586
0.0088865915
-0.00034226035
-0.024511512
-0.014784457
0.05723875
0.04331406
0.016911548
0.042123772
-0.058449466
0.012561304
0.10020496
0.013848233
0.021486212
-0.04566484
0.03734848
0.048413694
-0.007365962
0.013440993
-0.027849402
-0.03326404
-0.017421378
-0.013922276
-0.03468939
-0.021953072
-0.01032001
0.030753102
-0.018526336
-0.07300151
-0.037759576
0.026413003
-0.031415436
-0.076155834
0.013874361
0.029290361
-0.008284926
-0.10733462
-0.018435443
0.010798616
0.007683151
0.029834896
0.041327346
0.075878344
0.030483803
-0.029894784
-0.03617582
0.005064281
0.022295164
0.0066342517
-0.029270003
-0.00012578916
0.033874527
-0.017746996
-0.017910954
0.014153951
-0.023745785
-0.020793337
-0.09081863
0.006242203
-0.018316278
-0.04568478
-0.011868719
-0.031515494
0.0306942
0.0035378472
0.026706293
0.037987057
0.063710496
-0.013682077
-0.011263442
-0.0029262996
-0.038605746
-0.028852917
-0.07392609
0.011783913
0.034094397
-0.057180453
-0.0852787
-0.10137281
-0.017395673
0.005834073
0.020737343
-0.03497135
-0.07574564
-0.023450693
-0.004374051
-0.02990655
-0.0036558607
0.046278823
0.011470404
-0.056570966
-0.025045535
0.029850088
0.041232362
0.002357594
-0.039284214
-0.04981741
-0.009442485
5.071247e-05
-0.021083
0.043280717
0.027381212
0.035921834
-0.042733707
-0.041530255
-0.00012612967
-0.04298797
-0.15138698
-0.0361793
-0.082138754
-0.07389756
-0.08518579
0.01115086
0.024678167
-0.049503732
-0.078041844
-0.049790144
0.059130013
0.016309042
-0.03405247
-0.042714864
0.009265218
0.047575284
0.04062501
-0.00018680216
0.009146994
0.061816957
0.07563432
0.006496328
-0.039253376
0.027216699
0.048816066
0.013009621
0.032823134
0.027531922
0.030222163
0.095193855
-0.011125658
-0.018121842
-0.008381997
0.092611626
0.086925834
-0.035801113
-0.055453304
-0.036859807
-0.010686305
0.009944291
0.0038496158
0.036318842
-0.014136525
-0.014092507
0.010785698
-0.0033302363
0.058829486
-0.0014746537
-0.027641749
-0.06233468
0.0012353186
0.03191762
-0.01834767
0.015575047
-0.035510816
-0.0028032723
0.05468118
-0.015886266
0.0007622787
0.028162582
-0.044303168
-0.017596483
0.0135170175
0.010799455
-0.005318741
-0.0041011004
-0.019050391
0.037531234
-0.0046332353
-0.023958074
-0.04187
-0.032494348
0.04559616
0.008183067
0.019734489
-0.076408744
0.03557338
0.044508953
0.033629738
-0.09162492
0.030665861
0.11326602
0.01543436
0.01060889
0.012374157
0.0028428324
-0.01900389
0.0091990335
-0.07529827
-0.035360053
-0.020739377
-0.05182919
0.012207059
0.06477476
-0.060647905
0.000459208
-0.018112477
0.0072155576
0.055634424
0.059976846
0.006509009
0.021049496
0.051200613
0.10143152
0.084520034
0.011710146
0.06899622
-0.012407834
0.043805886
-0.027231846
-0.011577354
-0.04346574
-0.036664255
-0.052458443
-0.04818255
0.02879837
-9.9708894e-05
-0.01717438
-0.020228896
0.012376797
0.047402974
0.030207545
-0.054982707
-0.055931635
-0.014426546
-0.046456803
-0.03599574
-0.022604011
-0.025904978
-0.0782013
-0.0647329
-0.025201527
0.011069256
0.057774473
0.0030433924
-0.064575255
0.0038220158
-0.0139012905
-0.026972022
-0.028329687
-0.010400829
-0.017761776
-0.023258839
-0.0075386055
-0.02271141
-0.003918597
0.035183486
-0.08142429
-0.0962078
-0.038083024
-0.054799598
0.076238506
-0.07408072
-0.06799316
-0.031783175
-0.03025581
-0.007619966
-0.047733437
-0.05633884
0.031654533
-0.03982904
-0.032557447
-0.021214856
-0.0013831696
-0.02411946
-0.0061273878
-0.00024407588
-0.008391929
-0.0043210546
-0.008919452
-0.017381458
0.0044594915
0.008128731
-0.016803723
0.0042455434
0.013016549
0.003601077
-0.01786315
0.02367676
0.012111401
0.05904919
0.043507222
-0.0029441018
-0.012261431
-0.015975554
0.03534523
-0.0151341325
-0.021423768
0.035870567
-0.011807952
-0.05335595
0.0017651649
0.057467032
-0.0021554783
0.011724956
0.011411297
0.07958433
0.05660503
0.025583955
0.0799622
0.0816628
0.09296067
0.09149845
0.070498005
-0.01394561
-0.0031813544
0.004324921
0.033897623
0.06590761
-0.05680145
-0.11535119
-0.09529915
0.020703591
0.028762797
0.015027457
0.0022839557
0.03471899
-0.008223163
0.010636923
-0.021477247
0.015615306
0.03134237
-0.029280838
0.0006895849
0.03331473
-0.016684866
0.008445541
-0.024962641
-0.011962684
-0.025206361
-0.005173791
-0.025292259
0.014469733
-0.0060708653
-0.021981135
-0.030739458
-0.0075335745
0.036303885
-0.033459447
-0.024721066
-0.02950735
0.012767312
-0.043453846
0.03170749
-0.023328956
0.072518244
0.071240425
0.022766061
0.02284338
0.0058793854
0.055488784
0.064564936
0.006581783
0.03211357
-0.037411787
-0.011960815
0.03125702
-0.0058417567
0.0152420765
-0.020655213
-0.03732307
-0.016899377
0.024178883
-0.003986839
0.030968122
0.008171028
-0.004708746
-0.0004434406
-0.0041475995
-0.01915926
0.043209013
0.01989834
0.07163482
0.005724466
0.014128144
0.07201776
0.06103798
0.061526354
0.086256914
-0.05418204
0.01033716
-0.018403478
0.03594448
0.06481312
-0.020109704
-0.07857184
-0.046226796
-0.0026616242
-0.0049609705
0.0036526585
-0.033005174
0.015105757
0.028952468
-0.018914903
0.0071358196
0.032559875
0.0651452
0.0068252054
0.012194701
0.027310273
0.012095368
0.0064310576
0.041202594
0.029555274
0.017789543
-0.09715992
-0.06194282
0.010160587
0.0342397
0.125866
-0.02670281
-0.041029416
0.0027650325
0.015485872
0.006429752
-0.021519553
-0.016677728
-0.046463866
-0.0014776965
-0.025163822
0.025157312
0.029188318
-0.0043527475
-0.047094237
-0.06742177
0.0035269142
-0.00608252
-0.036600262
-0.047870103
-0.091180466
-0.026456831
0.04827245
-0.03319939
-0.047075633
0.085601084
-0.01842135
0.02063159
0.036367167
-0.008543485
0.0014132512
0.026563222
-0.022381498
0.008272182
0.007814184
0.022456253
-0.030726228
-0.029191218
-0.039924454
-0.012781072
-0.020013891
-0.021664757
-0.022808827
-0.04367195
-0.03971036
-0.032435223
-0.013821376
0.014175851
-0.015403885
0.01155489
0.0020129376
0.031737078
0.019071134
-0.008729549
-0.06180293
0.0352066
-0.011486551
0.01717116
-0.004070672
0.007822969
0.046046376
-0.03572853
-0.09867461
0.004954625
0.070683315
0.041216362
-0.11035943
-0.01549449
0.041743666
0.0053461622
-0.015745457
0.04172571
0.062723994
-0.01989958
-0.048928436
0.0179614
-0.025470186
0.04928326
0.015997835
0.0030122446
-0.0044019977
0.03238604
0.044837832
0.009812626
0.029967502
-0.015855065
0.024003869
0.01860566
-0.0058754305
-0.002800401
-0.0008703612
-0.009389844
0.0034534435
-0.013928181
-0.022559501
0.057002377
-0.022881458
0.03568855
0.00485997
0.04805067
0.01603815
-0.056315575
-0.028767694
-0.031483438
-0.02311029
0.02825211
0.016707333
0.015171786
-0.025973544
0.0032427812
-0.01781917
0.033423908
0.051429737
-0.037026588
-0.019830506
0.00016616801
-0.009194058
0.012795472
-0.01533625
0.023503626
0.004266174
-0.046105992
-0.0050975056
-0.02434595
0.0046855663
0.0005568906
-0.0017585593
0.012773396
0.027006056
0.035933636
-0.021737058
0.016992517
-0.016669026
0.04713835
-0.007998432
0.027442837
-0.052114885
0.008954363
-0.017607374
0.0006271664
0.004820368
0.05017475
0.037855163
0.023880292
-0.017522477
-0.029091131
0.029097226
0.061962903
-0.032688327
-0.041291907
-0.04187517
-0.06697263
0.00070203823
-0.018740984
-0.005897344
-0.0012147493
-0.010589282
0.0073992037
-0.042048167
-0.007820745
0.007482221
0.029803347
-0.0069319615
-0.040461846
0.051758453
0.05649629
-0.11472611
0.042354703
0.023163036
-0.009445833
0.063100934
0.0024183837
0.022992857
-0.011517142
0.010270571
0.005068394
0.003725
-0.06567451
0.017582333
-0.0104427375
0.04382839
0.012791818
0.02564136
-0.03052061
-0.026947415
0.03155231
0.009928214
-0.01154585
-0.04413579
-0.012055968
0.050185427
0.013056548
-0.029326316
0.005489805
0.02404352
0.010147543
0.013989822
-0.011732198
0.015728593
0.061366044
0.03225469
0.0014287469
-0.011745757
-0.004635443
-0.02314602
0.05327356
0.035936408
-0.02191698
-0.004286535
-0.0008943044
0.07664656
-0.0029975853
0.020687213
-0.016051816
-0.0026272596
0.042532716
0.067584425
0.014052376
0.0067332024
0.052679654
0.12013548
0.043899372
-0.005681449
-0.021288007
0.093666114
0.039817423
-0.036134813
0.013315059
-0.010965926
0.02963137
-0.028581051
-0.01842766
0.023355694
0.025372544
0.031516436
0.021733083
0.0052699717
-0.016916776
0.005592671
0.024471646
-0.02595636
0.013947871
-0.033709552
-0.01944109
0.0478313
0.04037193
0.032108553
0.016468976
0.014340854
-0.009984872
0.017336208
-0.03462663
-0.06052458
0.0008504141
0.020789854
-0.04140799
-0.070223
-0.00963852
-0.02242572
0.025744358
0.0019533802
-0.033578582
-0.025095332
-0.009638185
-0.0033723214
-0.08449834
-0.064681
-0.113783985
-0.039112527
0.057783887
-0.09628585
-0.054559145
0.040736906
0.074058644
0.02664424
-0.055593442
0.080161184
0.088718444
-0.01944856
0.019825997
0.019839197
0.010325045
0.017875541
-0.023253873
0.046375144
0.03607363
-0.012715387
0.035337225
0.01979525
-0.06353711
-0.015503898
-0.01118152
0.026853174
0.0062475256
0.012143956
0.034733705
-0.018837724
0.018558146
-0.022470534
0.026168086
0.00340402
0.01901806
-0.025424102
0.01049077
0.035330508
-0.044603128
-0.07726351
0.0059179333
0.010657157
0.016315335
-0.020531096
-0.13045438
-0.030898344
-0.005897206
-0.0589953
0.036138743
-0.02947343
-0.04616844
0.005150184
-0.09436533
-0.023074122
-0.06561399
-0.008969756
0.016983708
-0.021008015
0.0057515185
0.027190138
0.04997383
0.007195846
0.024989024
0.09634225
0.04394831
-0.002713861
-0.002786622
-0.021888558
-0.004333434
0.058477756
0.005353914
-0.03477982
0.0032821079
-0.030916275
0.07238356
-0.02220177
0.009248025
-0.02898472
0.069963254
0.03388075
0.021592436
-0.045063056
-0.024787204
0.022637188
0.01992004
0.02086029
0.03629412
-0.03420028
0.011742478
0.049199574
0.005784859
-0.019017115
0.017719489
-0.009609304
-0.040301617
0.012182783
-0.01378923
0.025721958
0.020779278
-0.04153243
-0.01632451
0.027859516
0.0062596714
0.057436477
-0.051528953
-0.0131170945
0.03966943
-0.014468033
0.016843213
-0.0021959248
0.042398304
0.011266421
0.04148315
-0.013526005
0.022379292
-0.00017064967
0.017455375
-0.0070296265
-0.02283269
0.031852722
-0.010473116
-0.026837455
-0.007212656
0.00704449
-0.0012668491
-0.012248815
0.021945907
-0.028362675
0.020562287
0.04462082
-0.041426532
-0.0033874663
0.00073021423
0.010841465
-0.0062979674
-0.020053715
0.028430462
0.02497678
-0.015796563
-0.0065747416
0.022082651
0.007961954
-0.036799405
0.050101805
-0.04010082
0.003281381
-0.007061718
0.03243102
0.1168711
-0.061429057
-0.006547708
0.018085767
0.069154836
0.027294625
-0.041473404
-0.004117535
0.030442506
0.017790431
-0.0036811347
0.0036090247
0.04499301
-0.004418866
-0.0068940003
-0.09241273
-0.080983065
-0.05655049
0.011457787
-0.0052368073
-0.04489594
-0.09266015
-0.06960727
0.030789187
-0.060060207
-0.10756807
-0.074420385
-0.037899785
0.02131318
-0.068459444
-0.07778179
-0.011922536
-0.018686688
0.0071543283
0.02876729
-0.0022217815
0.018347736
0.043878052
-0.027019082
0.011403504
0.061571114
0.059496474
-0.020657783
0.02666513
-0.01421219
0.035771057
-0.019693486
-0.013424922
0.015705617
0.044221174
0.028569056
0.009453084
0.0035273603
-0.0041637085
0.010933856
0.10779314
0.031680632
-0.049674515
0.038070995
0.08113455
-0.013905831
-0.08223204
0.013083098
0.009019244
-0.034472033
-0.038322926
-0.007655231
0.0019979775
0.023308374
-0.01947121
0.06518972
0.027700031
-0.0028582858
-0.023578687
0.014486443
0.069944456
-0.014552844
-0.027754849
-0.006639503
0.056303047
0.077637546
-0.0037332464
0.06184202
0.06899885
0.064983554
0.07471677
0.011470308
0.007318505
0.030524528
-0.0066220816
0.054922227
-0.0052451966
0.014603435
0.017216705
-0.033760183
0.008646659
-0.02006016
-0.064108185
0.0007982347
-0.045313563
-0.052923363
-0.0055079446
-0.019807475
0.011322646
0.01581397
-0.005323847
-0.01405957
0.009553291
0.0181422
-0.04647006
0.043789517
-0.035298437
0.00272318
0.008458105
-0.005270983
-0.015506491
-0.01224903
0.0033718413
0.0247296
-0.027674036
0.03122735
0.07426145
-0.023521833
0.022666205
-0.013221066
-0.015713897
0.0532443
0.021503404
-0.022216773
-0.0022194018
-0.005176507
0.05226
0.027062498
0.00027482296
-0.0139473155
-0.007874997
0.03975837
-0.024996748
-0.039673142
0.024739254
0.12574725
0.10713049
0.042442508
0.001954845
-0.054664638
-0.019810298
0.092968896
0.06306533
-0.02292659
-0.032107905
0.056895364
0.1327501
0.0023030967
-0.025150659
-0.005921277
0.074366726
-0.026470749
-0.022142373
-0.014090267
0.0020652856
0.05513988
-0.02405088
-0.0019892754
0.027344361
-0.009673367
0.11290434
0.043365344
0.04604242
-0.014082124
-0.045242336
0.0045606173
0.10389627
0.04157955
0.002357419
-0.041376445
0.013787644
0.13111384
0.056165222
0.024354225
-0.014160364
0.04751022
0.12150453
-0.043303087
-0.031129032
0.060892694
0.03334489
-0.10601945
-0.038395233
0.0066908235
0.037061155
-0.015773075
-0.03978986
-0.059590574
0.019882629
0.027730186
0.004385868
-0.095728874
-0.046282828
0.007790405
-0.008501769
-0.050038576
-0.073999085
-0.010699266
-0.029001614
-0.062547415
-0.0435599
-0.030905334
-0.035531435
0.0011974664
0.030476071
-0.0020270285
0.015624654
0.06925239
-0.0061062784
0.002903791
-0.09172103
-0.036823653
-0.03587084
0.040981367
0.049664993
0.021745633
-0.013255355
-0.072665684
0.027466832
-0.012184972
-0.034459606
0.0036134515
-0.03875132
0.029798564
-0.013638942
-0.031622197
0.051307276
0.03190357
0.025478305
-0.081688076
0.019357542
0.12582488
0.10952753
-0.0142326215
-0.016187998
-0.0037308102
-0.027266372
-0.03954269
0.0041695763
-0.0055800774
0.017141495
-0.005632639
0.008644915
-0.0018124277
-0.002528288
0.008319679
0.049273472
-0.006729784
0.025429739
0.009073143
0.04227976
0.032103926
-0.018825378
0.0008685573
0.034551766
0.036577113
-0.007187682
0.023953298
-0.004349913
0.020207465
0.106699966
0.055386506
0.049002673
-0.00018827018
0.0034359945
0.0800372
0.017178431
0.08276618
0.01541283
-0.0033512344
0.09878763
0.05083911
0.0060858415
-0.08245316
0.0053102043
0.20795888
0.04621202
-0.033959858
-0.03255817
-0.039749023
0.045620073
0.03232772
-0.014126416
-0.02545614
-0.02014343
-0.011870728
-0.004517822
-0.025425198
-0.02493245
0.005336979
-0.012637283
-0.030340044
-0.039926447
-0.025060972
-0.010705547
0.034904756
0.034201045
0.0045769988
-0.019578695
0.023705928
0.011476678
0.020109162
0.007576014
0.034509618
-0.02300273
-0.00027069825
0.028128594
0.019333206
-0.034203622
0.07362086
0.050393827
0.061930478
-0.03445014
-0.051658206
-0.027292896
0.0056918156
-0.04737203
-0.06190569
-0.048199076
-0.011018343
-0.0011013986
-0.03445657
-0.059921727
-0.032785617
-0.012523272
0.014789477
0.036233444
-0.054630563
-0.029006299
-0.038016994
-0.004334089
0.02684181
-0.043431107
0.029874817
0.008008693
0.102215305
0.021224847
0.0800158
-0.0013263536
-0.0745814
0.018765913
-0.028679619
0.04778811
-0.0038811543
-0.05763332
0.07970265
0.026761035
-0.010000268
-0.066686
-0.058229115
0.12599462
-0.058292527
-0.02117277
-0.029823463
-0.0769263
0.041384663
-0.0028882865
-0.03159696
-0.02127896
-0.008145081
-0.044137318
-0.061163545
-0.027789537
0.024248417
-5.8785532e-05
-0.03420051
-0.080425575
-0.050267495
0.0012186578
-0.0028142452
-0.14243257
-0.037300147
-0.023732577
0.040594522
-0.11288888
-0.058971338
0.0008798863
-0.048246574
0.025307309
-5.5793735e-05
-0.036643684
0.056979295
0.035844512
-0.014411579
-0.01599752
-0.0014392276
-0.017733112
0.017106852
-0.024968712
0.036168486
0.0016911931
-0.026343469
-0.10160367
0.011818365
0.04787464
0.026148766
-0.036351703
-0.056235664
0.029257592
0.027953606
-0.03325356
-0.0363653
-0.0020028504
0.015492122
-0.03054411
-0.08660528
0.02272334
0.023157272
0.032931745
-0.0024138596
0.01571505
-0.0059915194
0.047711015
0.008223481
-0.054594964
0.02480242
-0.000141796
-0.014480477
-0.030845005
0.0021712957
0.045713346
-0.008898892
-0.032249108
0.0093716
0.0009143794
-0.01685246
-0.00039707217
-0.045201387
-0.03194501
0.016037304
-0.0023614834
-0.03985467
-0.040026847
0.029670317
-0.06427886
0.008957655
-0.0054105893
0.04852954
-0.012818842
-0.03242277
-0.07151685
-0.04186941
0.01847279
0.025064038
0.013764196
0.04877481
-0.07279399
0.009693909
-0.031009281
0.059405282
-0.13090716
-0.022264043
-0.027848639
0.039632842
0.01875519
-0.07155936
-0.09665853
-0.0081874905
0.020769363
0.03150972
0.042282958
-0.0049922336
0.031505294
0.01363602
0.014528077
-0.0391581
0.009053214
-0.018677961
-0.008057767
-0.019346857
-0.0063623353
0.016852675
-0.016670002
0.03293677
0.009980517
0.017861377
-0.0049993563
0.019044047
-0.03948833
-0.036081422
0.03209158
0.018037066
0.021951191
0.013379525
0.037243098
0.023414407
-0.019539077
-0.025847517
-0.015151725
0.025592227
-0.009891173
0.017880963
-0.016274497
-0.028334226
0.030419499
0.03628098
-0.0031748253
-0.0015205683
-0.030510772
-0.0015633547
0.005424414
0.033728626
0.0039788675
0.0014477501
0.04463885
0.0066447444
0.016411768
0.02743788
-0.041431446
0.0011929106
-0.008001932
0.021551657
-0.005610607
-0.018996658
-0.041959006
0.018499922
0.08163124
0.021843912
0.0072170445
-0.024167528
0.025459364
0.058364846
0.032583147
0.015720464
-0.009193
0.010677135
0.013480311
-0.03697647
-0.042236675
-0.019270586
0.04607714
-0.00691753
-0.0005044913
0.010147726
-0.05165342
-0.026290067
-0.048900943
-0.004516281
-0.0039802897
-0.023120793
-0.033456188
0.00035202343
-0.043287635
0.029917479
-0.01741016
-0.011072462
0.008740947
-0.060832337
-0.03892054
-0.045593947
-0.06424814
-0.01068203
-0.063160956
-0.0026575373
0.035641786
0.003282097
-0.063426256
0.03611417
0.0017919977
-0.00209539
-0.01875338
-0.0024783735
-0.023035135
-0.0313981
0.020679485
0.02268908
-0.012083621
-0.07775144
0.0012159481
-0.0041308864
-0.002001335
0.013283168
0.0513673
0.08546134
0.018840004
0.027085051
0.030562233
0.025511736
0.011733396
-0.019166445
0.09871529
0.042297527
-0.002687113
0.027423374
-0.006022718
-0.053773627
-0.081673436
0.015846092
-0.01176693
-0.0012923821
0.030989183
-0.032313835
-0.014338272
0.018696275
-0.049790148
0.010109403
0.019584112
0.031073919
0.03157692
-0.08284338
0.009996716
0.0601461
-0.062464427
0.03444694
0.02914076
-0.015038724
-0.03594342
-0.006046988
0.008720808
0.0071210996
-0.035926905
-0.029410362
0.018948384
0.0062421407
-0.01302292
0.010593495
-0.04093227
0.0102884825
-0.01583369
-0.016044358
-0.018488847
0.04343297
0.03685778
0.024322972
0.011619152
-0.04262849
0.01466368
-0.038152296
0.01187367
0.043806292
0.001342411
-0.020047143
-0.04634896
-0.037277877
0.012644265
0.017100358
-0.039210796
-0.069924556
0.02558057
-0.06705847
-0.028649176
-0.043064147
-0.08006704
0.12669016
0.03238913
-0.002641185
-0.055766754
-0.054466084
0.08933462
-0.041622575
0.001362981
0.016319694
0.08838552
-0.03156004
-0.07301215
0.052156188
0.16320954
0.17179726
0.033314288
-0.03900927
0.02896542
0.02833611
-0.025111595
0.0125376545
0.032102983
0.049586043
-0.00064224406
-0.0006691194
0.012186239
-0.06018752
-0.0197025
-0.010262613
-0.0019608233
-0.0024619692
-0.10644628
-0.03548448
-0.006312813
-0.023277374
0.002523081
-0.0028587228
-0.036877304
0.022045484
0.0056150486
-0.014922126
-0.010202999
0.038079824
0.08232958
0.007806253
0.0063332804
0.040716533
0.11534133
0.045774262
-0.053684875
0.0140224835
-0.06752559
-0.019715419
-0.06973425
-0.076873966
-0.028070446
-0.08154782
0.024255443
-0.06093883
0.026700582
0.05276149
0.03641517
0.034324937
0.100045435
0.13654341
-0.0034916073
-0.008029367
-0.048624195
-0.021477766
0.009314412
-0.046428982
-0.04673624
-0.00931502
0.036461376
-0.026740598
-0.036284555
-0.066169456
-0.044128716
0.026537307
-0.00057216355
0.039223865
0.00522033
-0.06496681
0.0016922589
0.015394578
0.0028733918
0.116876334
0.051407605
0.009337748
-0.027950386
0.03165878
0.07842849
0.0405803
-0.01577967
-0.020571169
0.0147801945
0.04689609
0.058751415
0.05351188
-0.06156842
0.060493812
0.13892262
0.033733826
-0.038062755
-0.06552146
0.03405349
0.05369786
0.014778493
-0.025008677
0.11071252
0.014369765
0.018061878
0.01919874
-0.036113773
0.04203796
-0.0029428517
-0.03605622
0.01977004
0.0062212236
0.0050864494
0.047790326
0.035394527
0.044399135
-0.04726782
-0.062801234
0.0139712775
0.007901315
-0.043763105
0.05194401
0.026792409
0.0067028976
-0.020964215
-0.07628959
0.020243587
-0.043254778
0.01608307
0.052707396
-0.01823354
-0.03766621
-0.027061852
0.015698396
0.02816861
0.009943947
-0.020267952
-0.033997677
0.028948031
0.09524186
0.04730224
0.062491365
-0.07767535
-0.014653574
0.076030895
0.006744397
-0.07241999
-0.003402359
0.042676296
0.03656702
-0.037748016
-0.025400598
0.1068964
0.038651865
-0.0002315637
0.0039200517
0.04642379
-0.04257336
0.025936084
0.009685736
0.014053728
-0.0041613816
0.015372555
0.036224626
-0.009200717
0.03499739
-0.049342893
-0.08680171
0.029915895
0.02847659
0.045986813
0.00609234
0.013678966
0.011277961
-0.03775888
0.04152207
0.048872735
0.038601987
0.0013017679
-0.076281376
-0.017402336
0.077765144
0.089424714
0.0073100785
0.016012982
-0.039317247
-0.12316294
-0.03999471
0.038610708
0.031635318
0.02592191
-0.015237327
-0.07711414
0.0066267783
-0.03249195
-0.048866723
-0.03579027
-0.047281586
0.035737514
0.0910494
0.102751635
0.059997905
0.100457326
0.0411334
0.06766674
0.053588565
-0.10537415
-0.024561858
-0.015948242
-0.035843704
-0.04781687
-0.06646981
-0.06800202
-0.0027337868
0.009998319
0.04983362
-0.11540851
-0.105895646
0.07806097
0.16663776
0.04219346
-0.0033789473
0.07497809
0.041714188
0.04157585
-0.048235185
0.06613185
0.10865052
-0.018388087
-0.015267292
-0.0058380733
0.05255704
0.16450867
-0.033461276
-0.026100283
0.0052585774
0.010756933
0.040116582
-0.041244484
-0.09056152
-0.011540192
0.05092318
0.05667735
-0.01964174
-0.03943171
0.004385956
-0.0013528783
-0.04073154
0.016676279
-0.052337147
-0.055710774
0.010642149
-0.036931086
-0.014726537
-0.052530475
-0.06974509
0.050743822
0.10286524
-0.02552811
-0.015582764
-0.04659257
-0.0006320551
-0.0053059957
-0.01692366
-0.030706855
0.042446703
0.018639741
0.03387632
0.0082850205
-0.03619808
-0.03956168
-0.005730455
-0.0075245816
-0.0140240695
-0.016721036
-0.06127547
0.006950635
-0.022299761
0.024402468
0.028713457
-0.01405553
-0.012549373
0.015668659
0.02186461
0.007868811
-0.10231478
-0.08927022
-0.045466673
-0.015329271
-0.025556015
-0.007854028
-0.066619374
0.008045086
0.014404565
0.014465306
-0.10219238
0.09413545
0.06902567
0.040980205
0.11904674
0.058047164
0.08030659
0.007591262
0.036259722
0.088249765
0.07275324
-0.026425669
-0.13384968
0.005917377
-0.036494654
-0.047358394
-0.06464317
-0.024524635
0.021496683
-0.09279537
0.021257186
-0.012004985
0.038493577
-0.045375932
-0.1958542
-0.07778054
0.063823305
0.021144362
-0.018425709
-0.14143996
0.0720511
0.05218143
-0.08104787
0.09526029
0.023052808
-0.09176286
-0.031325165
-0.040488675
-0.019151252
0.036028404
0.00352597
0.08408361
0.08202577
-0.031946205
0.009096983
0.07404953
0.041192863
-0.006098652
-0.012254288
0.0024763178
0.03048197
-0.07339606
-0.07102194
-0.03753961
-0.087570876
0.020395942
-0.028819472
0.036549486
0.013243177
-0.037858985
-0.03339183
0.055182915
0.06673235
0.040766716
0.08088015
0.05291844
0.02890169
-0.03379727
-0.033642042
0.03517989
0.11414278
0.06704911
-0.048455853
0.014040718
0.11958675
0.061675977
-0.0196853
-0.021746054
-0.0521951
-0.12567598
-0.024814881
-0.00044976643
0.115614355
-0.061952747
-0.030098995
-0.02298613
0.06380666
0.1591438
-0.030982275
-0.014938651
-0.017551512
-0.02809145
-0.018376714
-0.028763779
0.022544775
0.0107586235
0.008977904
0.008280841
-0.0083633205
0.013766613
0.01282472
0.052845545
0.010846361
-0.011334248
0.027912503
-0.055607602
-0.020318741
0.03963638
-0.011257171
0.013286194
-0.06480252
-0.0074882847
-0.023848698
-0.015509648
0.0612539
-0.033098444
0.0016839129
-0.021484805
-0.058608107
-0.038008694
0.029940058
0.09004723
0.11781066
-0.051131316
-0.09396218
-0.07020669
0.03346243
0.038058862
0.02558454
0.045344986
0.0055338433
-0.06744888
-0.14908318
0.05104294
0.061467092
-0.057236396
-0.101862736
-0.09129629
-0.03220182
-0.031585384
-0.006412284
0.009403048
0.029480098
-0.008336247
-0.03273753
0.03436133
-0.022912355
-0.0031035845
-0.013992263
-0.0350541
-0.012344964
0.0070155845
0.009078139
0.026188433
-0.015681157
-0.008412114
0.033731963
-0.0016224056
0.03039883
0.01568435
0.01668404
-0.03146929
0.0018574479
-0.0075605237
-0.016949657
-0.02976527
-0.011108738
0.069500186
-0.04458069
-0.028420214
0.0018554942
0.013760937
0.0621317
-0.03548381
-0.02590624
-0.08410441
-0.047533385
-0.017562846
0.015636198
0.097354144
-0.001209419
-0.02505861
-0.018585723
0.045516267
0.06433132
0.0029098792
-0.00070668873
0.049051438
0.02223106
0.019649148
-0.027885012
-0.03765443
-0.082214475
-0.06512078
-0.03370148
0.024290627
0.03408553
-0.024025498
0.0113635035
-0.08327884
-0.11395972
0.04389253
0.09055693
0.026376728
0.033607904
0.03109624
-0.008262393
0.023854496
0.050863057
0.055662483
-0.04709646
-0.008172634
-0.065735735
-0.008432598
-0.044458043
-0.022651158
0.017300293
0.02500927
-0.0009789598
0.044872854
0.056422755
0.0032901964
-0.07906047
0.05934705
0.019955339
-0.0034029782
-0.0693289
0.0057156305
-0.040934842
-0.14828661
-0.025270032
0.017064866
-0.011687397
-0.02803901
0.07779278
0.1556996
0.1727138
0.08183349
-0.026161674
0.0310161
0.05264761
-0.0047190124
0.011709776
0.058752198
0.01956099
0.047161702
0.039918844
-0.022844343
0.040120777
0.08418761
0.009037528
-0.01684334
0.01265444
0.006097281
-0.06000148
-0.04379772
-0.071086206
0.0191848
-0.08850529
-0.05507218
-0.005580801
0.028931392
0.08186056
0.00077071204
0.015759028
0.056275554
-0.048790526
-0.05744831
-0.0058226674
0.0030516577
-0.011963035
0.05632175
-0.013688547
0.070461996
0.08127479
0.043371677
0.019225692
0.039562833
-0.026398685
-0.016035888
0.0067394986
0.027206086
-0.015465298
-0.004041931
0.010991888
0.040678374
0.015462587
-0.044800147
0.027024236
-0.002830534
-0.051835224
-0.0019145386
-0.1199771
0.06655127
0.03075945
-0.021760916
-0.02194362
-0.054749094
0.07027534
0.03931191
0.021236947
0.0031484521
0.025249848
0.065345116
0.09681337
0.06257003
0.10601048
0.06941334
-0.010047857
-0.060680207
-0.025240881
0.013313346
-0.10112762
0.034219213
-0.025634302
0.016918344
0.036308303
0.005096546
0.028506644
-0.010835164
0.02418959
0.01106152
0.017162774
0.0073665255
-0.035109326
-0.035058543
-0.015811576
-0.024761263
-0.008128809
-0.040635563
-0.06982736
-0.025373658
-0.014846064
-0.008367803
-0.0064997156
0.012741084
0.0070824465
0.0027543218
0.0073828474
0.01570083
-0.024249176
0.010071071
0.017416803
-0.053199712
-0.0074765664
-0.024773866
0.056258794
0.0017383455
-0.008355789
-0.061220273
0.05658441
0.052736647
-0.018588284
-0.007793699
-0.10218985
-0.001258938
-0.0575751
-0.045045562
-0.026808206
-0.060677815
-0.0075025344
0.034206778
-0.0452248
-0.037026223
0.008148956
0.025740465
-0.051510584
-0.038106292
-0.008938759
0.030068312
-0.00024395643
-0.002083503
0.06928545
0.038383175
-0.011297426
-0.007014455
0.048802175
0.04007409
0.04166324
0.014612968
-0.0031872522
-0.008230974
-0.09113079
0.029112207
0.025053365
-0.06939141
-0.07566289
-0.088446856
-0.007444945
-0.012694024
0.044049744
0.0014281948
-0.036685698
0.0006854817
-0.034087326
-0.028280508
-0.027012909
-0.016135165
0.0042959703
0.018335968
0.006766982
0.040487606
-0.0030927693
0.0021461998
0.0015665005
0.081962936
0.06632135
-0.016520558
0.035733007
-0.032876357
-0.047784228
-0.0248123
0.05372379
0.034450646
0.020181065
0.04633682
-0.023788985
-0.014227339
-0.012505052
-0.015935712
-0.034084078
-0.08643773
-0.06435221
-0.00031873223
0.043252107
0.0783616
0.059358496
0.018828465
0.017381921
-0.03433002
0.005143628
-0.06971949
0.038704943
0.009090138
0.027434254
0.037391447
-0.00305169
0.0047272244
-0.02059661
-0.012110552
0.01747038
0.013980965
-0.013762646
-0.006020506
-0.01020536
-0.04505176
0.032069795
-0.0017764688
0.036696553
0.0133941155
-0.008444806
-0.07100724
0.019849643
-0.018404199
-0.028776677
-0.031562064
-0.026796456
-0.008094405
-0.024616485
-0.04712049
-0.09973414
0.027322857
0.013790325
0.034092166
0.012571416
0.02098393
0.018778361
-0.044071093
-0.027732832
-0.010464788
-0.017093984
0.035523452
-0.001970086
0.012591459
-0.02953409
0.009624042
-0.039316334
0.021238444
-0.018086111
0.023610033
-0.010921359
-0.028319504
0.038841255
-0.022783088
-0.032854386
-0.013236575
0.008307864
0.028201794
0.036868956
0.060833056
0.14285898
0.054164916
0.006692844
-0.024739794
0.05562649
0.07003749
-0.023510773
-0.05193194
-0.0063207094
-0.06269711
-0.010682358
0.1190149
-0.024709715
0.073787294
0.027966896
-2.1574835e-05
-0.0071548023
-0.041557487
0.06753846
0.11898625
0.04676213
-0.030899053
-0.0830711
0.008781484
0.0077771256
0.062011678
0.02402484
-0.028419804
-0.033466455
0.0035913293
0.05311241
-0.029615492
0.00042792154
0.0013675856
0.024482755
0.032242756
-0.022128552
-0.030871142
0.07349987
0.089470774
0.07107844
-0.0040543773
0.03326475
0.020464264
-0.0081864
-0.0033701546
0.0062510506
0.013040313
0.0089843515
0.049594592
0.06961991
-0.0020663373
-0.005033309
-0.018755853
-0.021165859
-0.0502322
-0.052069876
-0.07113292
-0.025025751
-0.06883477
0.00793046
0.06450319
0.039043672
-0.026813276
-0.012629856
0.066479765
0.05963964
-0.020292712
0.042559683
-0.037732862
-0.0045320285
0.02091393
-0.026833273
-0.03570015
-0.0055871797
-0.042047113
-0.030315373
0.016541744
-0.042518757
-0.084572494
-0.14030175
-0.06344637
-0.007424406
0.0063721696
-0.027304469
-0.038770486
-0.045264438
0.0021547892
0.019809429
0.014982828
0.045045003
-0.07575756
-0.025995366
0.034641825
-0.059468072
-0.11307377
-0.044964492
-0.0104569085
0.018747771
0.04079137
0.014311358
-0.051739126
-0.035089303
0.044892713
0.060135525
0.018184615
-0.03312628
-0.00714319
0.04961682
0.1545672
0.062393703
0.122415155
0.13109022
-0.03355534
0.00079349935
0.104030214
0.049306203
-0.09964498
-0.038512837
0.04880215
0.050079323
0.026296565
-0.06277481
-0.02925437
-0.015375079
0.049639497
0.033761878
-0.013882019
-0.010570703
0.017931532
-0.059496645
-0.072418936
-0.012744102
0.035908494
0.080896474
0.003646379
-0.057112034
-0.026298001
0.019417161
0.061802242
-0.057667356
-0.03785972
0.015422091
-0.02185255
-0.042615473
-0.067002185
-0.009201294
-0.008072119
0.032836102
0.04149101
0.052306965
0.019571092
-0.028631302
0.018616226
0.072930045
0.07464505
0.022110922
-0.051352397
-0.027814757
0.1353012
0.12480711
0.107824266
0.029924333
-0.037659474
0.04727973
-0.0038186314
0.04842072
-0.05688896
-0.020962913
-0.01948552
-0.024748694
0.053463817
-0.01939902
0.031327486
0.033932216
0.054267664
0.01976465
-0.016302427
0.014780978
0.046597354
0.07907651
0.04555819
-0.0024141383
-0.03423404
-0.09103363
0.006723003
0.023278894
-0.014014049
0.019131113
0.008800295
0.014910665
-0.01623432
-0.024933564
0.041626506
-0.005110211
-0.03069756
0.023996022
-0.028337792
-0.006306643
-0.029531606
-0.057756126
-0.018915188
-0.009166537
-0.0021066319
-0.02609119
-0.1427731
-0.014534476
0.038826734
0.04666997
-0.002508975
0.03440483
0.03401866
0.10033635
-0.057040915
-0.19146806
-0.14030536
0.020885812
-0.05305568
-0.04466706
-0.103253506
-0.007059154
-0.0041229227
0.02614013
-0.0049877446
0.02742087
0.10806732
0.006526017
-0.030197049
0.011063125
0.021947667
0.00061548874
-0.06196596
-0.113411084
-0.012610013
-0.0071356464
0.041045245
-0.00589102
0.0061220513
0.0031932583
-0.031154433
-0.0064680036
-0.08135101
-0.050605718
0.056390874
0.10760618
0.02090734
-0.042995255
-0.04201696
0.007821519
-0.03777633
0.018170051
-0.016263127
0.008377794
0.008525171
-0.024231043
-0.06305063
-0.05676143
-0.0028137441
-0.026353935
-0.025233246
-0.1362628
0.003910544
0.010547754
0.020477671
0.10157969
0.0065057063
0.049235836
0.020443646
0.0072384547
0.06680661
-0.052822456
-0.022699088
-0.024575004
0.03467944
0.029262478
0.04970435
0.027533427
-0.035025574
0.00495555
-0.008326682
-0.011653817
-0.016622819
-0.030402498
0.008963307
0.021781676
0.047293138
-0.05689419
0.0051924237
0.032911412
0.010108017
0.09588336
0.01013519
-0.018096425
0.06163899
0.0026303711
-0.06775067
-0.0061091026
0.00082798244
-0.029193902
-0.057725605
-0.09504854
-0.048959527
-0.048606772
-0.0060261036
-0.07473936
-0.094579086
-0.10374897
-0.009484192
-0.04452853
-0.04830894
0.07359167
-0.06925764
-0.046815217
-0.054126333
-0.085695
-0.0062027564
-0.101151615
-0.04579215
-0.0434156
-0.04457991
-0.09133696
0.003330753
0.03605576
0.041361198
0.011627632
-0.0028436084
0.03394979
0.060532495
-0.0027480267
-0.12532705
-0.09035463
0.08193254
0.10649332
-0.02435049
-0.013907844
-0.06345348
-0.0022102206
0.0185008
-0.022896534
-0.12133478
-0.14377692
-0.0661167
0.022040283
-0.014104158
-0.11739691
-0.12912558
0.06785516
0.082974225
0.015450307
-0.0008566268
0.10019853
0.09535185
0.011233231
0.0597931
0.052612234
0.08707181
-0.00295809
-0.042513363
-0.008119912
-0.04122192
-0.06503823
0.060851708
-0.011780667
-0.013419984
0.041643396
0.005649715
-0.0012029249
-0.0008057586
0.06810362
0.010908593
-0.022211226
0.008293906
-0.0489079
0.0017136293
0.06924686
0.08405666
0.07616914
-0.013697668
0.015894815
0.11189669
0.06120941
0.0018894449
-0.0845049
0.09159286
0.03061211
0.056885585
-0.028622948
-0.016678471
0.015649566
0.079787746
0.06932796
-0.009647247
-0.0050969543
0.058360357
0.12245555
0.03656102
-0.06882547
-0.10913045
0.031125864
-0.015249583
0.035858806
0.020377824
-0.022378594
0.012456002
0.040750347
-0.013529905
-0.018127419
-0.034222327
-0.008223536
0.00028494754
0.00067843514
-0.008928274
0.03421495
0.0020919242
0.055010695
-0.041441344
-0.045882136
-0.002321223
-0.017399317
0.017563399
-0.012891834
0.04997019
-0.015330724
-0.00603769
-0.033147506
0.017707916
0.027138272
0.019292029
-0.031780172
-0.03172692
-0.008903956
0.06637252
0.06656545
-0.112152256
-0.09352791
0.011379848
-0.12503079
-0.10577578
-0.049436297
-0.048381165
-0.029379273
0.014585613
0.052059952
-0.0038465902
-0.04004486
-0.045265608
0.011070752
0.040058855
-0.003612208
0.013782913
0.02559652
0.03435256
0.024015909
-0.008503604
0.02221549
0.030396318
-0.0050673215
-0.034839746
-0.01666589
-0.0022781475
-0.020635888
0.029016139
-0.024161197
-0.001078853
-0.022079123
-0.006703715
-0.025090866
0.0053779553
0.03301253
0.020153826
-0.016658261
0.012117776
0.009784289
0.028468417
-0.01142544
-0.0052632317
0.06522645
0.023511533
-0.052275587
-0.062095113
0.025451878
0.02244375
0.023935687
-0.035908446
-0.028621014
-0.050518584
-0.068547755
0.02407408
0.0018565665
-0.03429272
-0.055236816
-0.026380336
-0.0043079467
0.010973927
0.021237258
-0.06153792
-0.027330425
0.034883007
0.013827805
-0.020154206
0.013792019
0.011866193
0.035818033
-0.010456036
-0.09423062
-0.03824342
-0.043472033
0.062773734
-0.09493035
-0.04345003
0.020761814
-0.087449566
-0.06534156
-0.09699535
-0.06276518
-0.026252668
-0.0910269
0.018863296
0.016658276
-0.04813135
-0.10922561
-0.026267752
0.06574386
0.024834448
0.049793396
0.028078916
0.043781724
0.04675327
0.001950779
-0.012642882
-0.032560818
-0.022915564
0.011112972
-0.042101134
-0.10484122
-0.04845459
0.030527268
-0.032316793
0.014013016
0.042467885
0.09382078
0.0635276
0.03432558
0.027467068
-0.08395116
0.0008750663
-0.07489583
-0.059426922
-0.025657652
0.032297295
0.06846675
-0.0049130647
0.022850402
0.03226889
0.049158126
-0.006730621
-0.058122482
-0.119986735
0.027944578
0.044856243
0.029498309
-0.019186374
-0.025178293
-0.03670364
-0.0020266837
0.04676074
0.055104163
-0.06701189
0.09946944
0.098674975
0.048474614
-0.016118187
-0.08801939
0.026478881
-0.012021807
-0.022687003
-0.07522075
-0.0140497815
-0.003793048
0.0491854
0.020028137
-0.016772429
-0.01094936
0.045921784
0.056685872
0.11384582
0.036715567
0.017274033
-0.010185053
0.03699073
0.04469693
0.011830059
0.023416005
-0.024850363
0.053349666
0.0048342254
0.06422181
0.001696502
-0.0043480108
0.03196895
-0.018550219
-0.078409314
-0.083970614
0.033838093
0.09324054
0.039076563
0.033028513
0.026965205
-0.022100769
0.064176165
0.0486507
0.14030176
-0.072200224
-0.067634
-0.10730495
-0.06267285
0.07604442
-0.0710263
-0.012597865
0.0032974444
0.09595155
0.21666172
0.050733954
-0.03455602
0.008116844
-0.012679216
0.010869306
-0.037703764
0.03088787
0.0108734
-0.06659709
-0.05035616
-0.05699039
-0.010567995
0.021401657
-0.0049106507
0.025598064
-0.0023619696
0.020144757
0.02344358
0.008584069
0.02483986
-0.024128191
0.005611658
-0.045504693
-0.062394258
-0.021713039
-0.030494632
-0.027627517
0.013271411
0.035533883
-0.008044665
-0.005060995
-0.022196814
-0.028972099
-0.01509385
0.015742278
0.034416016
-0.012735142
-0.036318254
-0.04133209
0.048537396
0.0033531634
-0.0251542
0.040714584
0.003951205
0.11425492
0.015573269
0.011530698
0.014082952
0.07872489
0.014359448
0.029925354
0.0019704252
-0.05719261
-0.03622215
-0.022810651
-0.041307535
0.0022294659
0.0007178773
-0.0016559201
0.05164642
-0.001741874
0.010057073
0.021984832
0.045886416
-0.04909871
-0.034956846
0.0052061887
0.018391142
-0.034558304
-0.016587393
-0.016378064
-0.034776907
-0.046167288
-0.01763431
-0.008041218
0.034597773
-0.0049454705
-0.03558607
0.025534194
-0.003550127
-0.04265273
-0.03070693
0.03689503
-0.0027151727
0.028721932
0.038905725
0.002718038
-0.06077082
-0.01434783
0.051501904
-0.018739041
-0.013243948
-0.029097542
-0.036666006
0.039505
0.018841079
-0.016585032
0.000674786
0.019991357
0.03727519
0.0017607844
0.026408099
0.023660269
-0.04707114
-0.028242793
0.007762305
0.012633617
-0.03418788
-0.050805006
-0.046268154
-0.028696446
0.03685085
0.04422633
0.038155038
0.018084604
-0.029511418
-0.036968324
0.023137012
-0.03845037
-0.026342448
-0.009293327
0.026761679
-0.014619962
-0.06258682
-0.055312727
0.004225832
-0.0179568
-0.0021485935
0.058816746
0.078433566
0.004449573
0.008451857
0.08739904
0.06883764
0.10288729
0.019972045
0.0028255077
0.041342854
-0.025222069
-0.0074205766
0.006578367
-0.057877142
-0.03612317
0.0035937799
-0.00014515014
-0.014105748
-0.0010016118
0.026567986
0.027310342
0.024050534
0.015056272
0.009512738
0.021242306
0.021929514
0.023269396
-0.008573897
0.021443442
-0.03359897
0.03080933
0.01761758
0.039884157
0.027371269
-0.04378916
-0.012491635
-0.051965088
0.003018816
-0.023867449
0.0059741666
-0.020718073
0.030139202
0.004091803
-0.009147533
-0.042794812
-0.032430027
-0.013505998
-0.031781185
0.052127425
-0.059432115
-0.1186349
-0.08189553
-0.019203577
0.0062162355
-0.006453263
-0.053189997
-0.0857054
-0.030393904
0.018828364
0.0047436245
0.028578209
-0.001087829
0.08251361
-0.026347393
0.044218957
0.05887152
0.07080955
0.07704295
-0.019773327
-0.011401079
-0.13429368
-0.06157572
0.052010033
-0.014423984
0.036780853
-0.02236124
0.023174787
-0.02495823
0.016446976
0.022397634
-0.022043832
0.0029288044
0.006547688
0.013049249
0.06497325
-0.01317925
0.03784394
-0.0147457775
-0.0066619376
-0.010794492
-0.011723849
-0.024763338
-0.032996584
0.0020401147
-0.010459631
-0.017299931
-0.0053403256
0.015069904
-0.018888135
-0.023347726
-0.004733113
-0.049374577
-0.015600963
0.017250657
0.027782304
-0.09835537
-0.07184926
-0.04106536
0.050850764
0.04130157
0.020472785
0.015326846
-0.0302053
0.04223108
0.034342375
-0.0010990014
-0.0036309676
0.043926984
-0.012135525
-0.08341719
-0.07189734
-0.020226896
0.044197142
0.031506147
0.03280887
0.05781713
0.02100721
0.030634604
-0.0062647886
0.044181935
0.016895117
0.045616854
0.018242443
0.012606839
-0.013798158
0.009983055
0.04991282
0.014455086
-0.013476112
-0.023634536
-0.015871914
-0.016935049
-0.007912452
-0.03546777
-0.037299883
-0.010464724
0.058790788
0.04080412
-0.029157113
-0.03364842
-0.02466634
-0.007300081
-0.032293085
0.005381567
-0.10990462
0.010399175
-0.014540896
0.030412845
-0.034972023
-0.013889408
-0.014355785
-0.04336432
0.016128648
0.026970785
9.170624e-05
-0.110431984
-0.035194367
-0.024187548
0.027553007
0.012252588
-0.019247314
-0.058088984
-0.0006488823
0.004630567
0.035624485
0.04163682
0.016685735
0.017627612
-0.0057656546
0.05311608
0.07785976
0.048535533
0.058306586
-0.0449847
0.01288628
-0.041147914
0.040242463
0.035833202
-0.039331462
-0.008433827
-0.03405074
-0.03267724
-0.020112881
0.023925632
-0.034246534
0.045024853
-0.009783957
-0.006655355
-0.014799807
-0.04258744
-0.0685497
-0.11490225
-0.02715775
0.02386107
-0.051001053
-0.13444321
-0.046485532
0.040344182
0.043401252
0.025902076
0.049994584
-0.022980964
0.04572673
0.040036943
0.017103303
-0.07246032
0.06843192
0.05416314
0.00010562208
0.00073417
0.0068586464
-0.06101612
-0.020676445
0.028267777
-0.028412811
-0.10805487
-0.12595461
0.03559584
0.009672891
-0.019280205
-0.07896821
-0.0999998
-0.044503633
0.025640195
0.015551981
-0.010174995
-0.011121317
0.048125822
0.09565108
0.05585231
0.08130062
0.07197867
0.019492624
-0.0329892
-0.002830426
-0.052834135
-0.024282858
0.013892072
0.00025105182
-0.0354627
-0.027714726
0.022681607
-0.0059211804
-0.03175309
-0.020182243
-0.022560047
-0.008106779
0.05060212
-0.0996677
0.011773003
-0.030754182
-0.045588613
0.0462816
0.044008765
0.008461236
-0.0116029335
-0.0050235544
0.04130584
0.024686124
0.042173617
0.04246532
-0.02631278
-0.041047066
0.019532213
-0.03868243
-0.09320488
-0.037522092
0.015782958
-0.006451357
-0.03938998
-0.106297635
-0.08963432
-0.04872299
-0.027934587
-0.05526183
-0.08412425
-0.0464467
-0.033808645
0.011763215
-0.016027885
0.063631624
0.059666544
0.03399992
-0.005050492
0.009084108
-0.04170798
-0.049977988
0.023601059
0.023755515
0.03667791
0.07456768
0.073147506
-0.018062789
0.027243873
0.04244646
0.024781402
0.040952954
0.011520658
-0.022907278
0.009851876
0.03431741
-0.025610587
0.018060897
0.030240513
-0.029759256
0.0061931997
-0.028386336
-0.044393048
0.022730488
-0.018412769
-0.02104405
0.038835287
0.039343446
-0.0016444298
0.02900382
0.02454991
0.0059218956
0.046195954
-0.0006939707
0.020216389
0.04156782
-0.025646135
0.0133364275
-0.0030929504
0.01794275
0.027783528
-0.057950743
0.03689669
-0.021204319
-0.026247526
-0.0070872707
-0.053581096
-0.021380035
-0.0046753767
-0.05856812
-0.020224772
0.05173323
0.066729076
-0.00019101326
0.016626008
0.036087256
0.038447663
0.053417638
0.0043152636
0.010826418
0.10690008
0.13447066
0.14106135
-0.013938808
0.05001542
-0.030045586
0.1338809
0.06333806
0.025261236
-0.028003812
-0.10798973
0.021009266
0.023990357
0.0069159456
0.034179345
0.063367985
-0.0022492702
-0.022940196
0.002333738
0.027294004
0.067356735
0.02745562
-0.02714126
0.00012141101
0.037174415
0.09834239
0.123081215
0.09548355
0.0074233627
0.12237397
0.014920036
0.0032560967
0.04739856
0.0043719085
0.023242645
0.019113366
0.04107681
-0.06120345
-0.00469324
-0.020367982
0.03871672
-0.004300653
-0.049012963
-0.008420469
0.020406393
-0.0030545949
-0.07822413
-0.026313549
0.004706189
-0.026291534
-0.10425109
-0.069667496
-0.06361224
0.018543566
-0.015195032
0.007673738
-0.054669134
-0.0088888025
0.07146642
0.055261705
0.059099
-0.0015184551
0.024418807
0.0019832428
-0.036431238
-0.022090767
0.005051741
0.03877505
-0.0006791816
0.016854681
-0.013896072
0.009529496
-0.0084863845
0.042359654
0.032432538
0.012093953
-0.03418749
-0.038160563
0.006411305
-0.015252589
0.045579344
-0.01990349
0.027866604
0.011718268
0.047549754
0.0896506
-0.032856412
-0.0035548199
0.045746498
-0.047666676
-0.006751805
-0.0374537
0.048648447
-0.0028156922
-0.015662216
-0.0091743115
-0.022392284
0.014942524
-0.041158956
0.008506413
-0.002425728
-0.0018648778
0.011272213
0.0042339605
-0.0023723491
0.027707491
0.010935056
0.024085369
0.007928103
-0.049135726
0.021268511
0.008325695
-0.027538206
-0.015164373
-0.07114227
-0.020788644
-0.03748305
-0.01784304
0.018026035
-0.025693018
0.13053198
0.08297171
0.05868758
0.03898181
0.042084046
0.05321642
0.034834232
0.030421825
0.0130078485
-0.00377159
-0.11907588
0.031003645
0.010048073
0.040496748
0.01259471
-0.054927133
0.020811658
0.023821088
-0.035763316
0.0122475
0.04022088
0.028563464
0.055632886
-0.016373318
-0.034599036
-0.013034025
0.0064148544
-0.027970156
0.030680472
0.011878129
-0.016378472
0.008001483
0.00094409456
0.011621466
-0.02461641
0.0086973375
-0.027571658
0.016687263
-0.003082134
0.024685962
0.00013817946
0.0026627015
-0.007795368
-0.022052675
0.014042843
-0.017775746
0.033685382
0.0018927907
0.017506182
-0.015780296
0.07237538
0.01748492
0.016754765
0.024611488
0.04444471
0.009281728
0.01429424
-0.039408598
0.016836973
-0.023097662
0.03854842
0.018133648
0.0015060942
0.017714996
-0.037858903
0.015714975
0.045094274
0.04037761
-0.023014225
-0.0662362
-0.025319448
-0.019654639
-0.004891267
0.0010680358
0.0074439007
0.03743154
0.05888195
0.05719483
-0.024851149
0.064133465
0.05860727
0.09299018
0.00101055
0.027047787
0.043290913
-0.07199424
0.10260907
0.011272105
0.014014555
-0.034771867
-0.024277115
0.08670672
-0.01226439
-0.041283164
-0.009040428
0.027234066
0.051701896
-0.005593646
0.007507566
0.023621576
-0.06563954
-0.12189317
-0.023327664
-0.024913196
0.014796965
-0.06372474
-0.09175748
-0.12341175
-0.009077273
0.042736344
0.03848089
-0.0039315075
-0.049238883
0.05197898
0.035746805
0.048887856
-0.033787817
0.014801699
-0.008952989
-0.026719356
-0.10856312
-0.010210467
0.0236759
-0.030903596
-0.03549413
-0.044814043
-0.015353745
-0.021882972
0.03602623
-0.0081278635
-0.10632187
-0.1211181
-0.08454183
-0.020871978
-0.032905184
0.0031517092
0.00941873
0.015102579
-0.020765722
-0.0042341715
0.06464546
0.09488782
0.033903897
0.027449103
-0.037558485
-0.04168538
0.018489474
0.051646676
-0.0030888815
-0.005945123
0.06582025
0.0596176
0.04128653
-0.0037206875
-0.015732968
-0.033165485
-0.02012995
0.029415105
-0.002673385
-0.061797496
0.014534455
-0.017564049
0.005045235
-0.048450768
0.010439875
-0.053347904
-0.009427248
0.058280557
-0.017797317
-0.034175325
0.007022956
0.012770284
-0.008939143
-0.020594299
-0.009586326
-0.06930125
-0.024199761
0.08305854
-0.033344526
-0.041191377
0.06820688
0.028255032
0.13966477
0.018382339
0.0017404222
-0.028372435
-0.05694547
0.049896415
-0.012455474
-0.023303982
-0.08462189
-0.019248938
-0.01216382
0.070656545
0.030670999
-0.006175936
-0.09165343
0.011160917
-0.010384195
0.046902508
0.058891896
-0.00012651758
0.00055608054
-0.015094868
0.052081697
0.03796911
0.056618154
-0.020275073
-0.024826663
-0.042246416
-0.023313735
-0.00027870206
-0.021201499
0.01885523
-0.017647892
-0.03204578
-0.018980434
-0.005684724
0.02217808
-0.036382712
0.03020587
0.0430133
0.022832949
-0.034675784
-0.020117188
-0.00793603
-0.02845751
-0.02339137
0.01672684
0.022980867
-0.013791613
-0.039614934
0.013335417
0.026721563
0.007804614
-0.031380344
-0.059380148
0.018392462
0.04444402
0.01928957
0.037104286
-0.025211435
-0.03111708
0.027097601
-0.005416104
-0.004252284
-0.007416448
0.05203002
-0.037500348
-0.00089196296
-0.024312163
0.060377385
0.098123744
-0.04758065
0.0361494
0.07668897
0.047998853
0.066781886
0.04082385
0.0508061
-0.08405107
0.03541664
-0.014611605
0.030468365
0.017433086
0.028420307
0.036189694
0.0041946727
0.019699076
0.003482779
0.014184931
0.011002107
0.008463158
-0.01654834
-0.008001238
0.002076533
0.045971707
0.01528908
-0.0005052689
0.01851811
0.10730073
0.013543178
0.075350516
0.022290694
0.025330618
0.005210827
-0.042648464
-0.022372052
-0.004081517
-0.020660482
-0.020828607
-0.008563277
-0.001764411
0.0162793
0.031616595
-0.018689912
-0.08085415
0.016593946
0.0023289646
0.013076849
-0.024960225
-0.008328169
-0.01718239
-0.026630148
-0.002017386
0.012041268
-0.001889683
0.017783279
-0.043236703
-0.018307108
0.019779913
-0.058225453
-0.040277544
0.021623245
0.022738969
-0.043182112
-0.015779614
-0.025592688
-0.004292273
0.0026830751
0.05516153
0.0286151
-0.020514598
0.02160725
0.006620356
-0.0069960686
0.011565
0.017809665
-0.010939602
0.020725764
0.03563076
-0.005287921
0.016799076
0.0071013276
-0.081227995
0.015192758
-0.07394425
-0.05710059
-0.017455377
-0.03529995
-0.0018758444
0.0033075355
-0.015941005
0.00059586327
0.006920998
-0.007343628
0.04576209
0.021064246
0.03372006
0.028080337
0.042063367
0.025093077
0.0044065462
-0.01917838
-0.010209356
0.012693072
-0.00088817533
0.020176025
-0.025506435
-0.02887964
0.028645368
-0.005235459
-0.04169284
-0.007989416
-0.014634603
-0.02092282
0.033445556
-0.040605973
-0.013558
0.03393672
-0.0047765574
0.034227513
0.024687842
-0.044796143
0.030011132
0.0053179436
0.08277927
0.019140003
-0.049407125
-0.034472242
-0.013831873
0.022556994
0.103046834
-0.048744984
0.05945496
0.05545065
-0.04578231
-0.0579928
0.081801265
0.028478295
0.04417611
-0.020681733
-0.018494321
-0.01802183
0.10427075
0.05837497
-0.019860191
-0.01834679
0.018273184
-0.03663582
-0.01317284
-0.017531663
0.026861414
0.010463239
-0.0024529034
-0.00385049
-0.037010495
-0.04289527
0.018699804
0.07133102
-0.0059258873
-0.010743255
-0.022178322
0.029921735
0.015061504
0.014380052
-0.023223752
0.041728012
-0.008492653
-0.0027348613
0.0067871558
0.031468455
0.012274964
-0.039888136
-0.044969603
-0.008207347
-0.020951
0.009154607
-0.020605039
0.013139198
0.022320325
0.052523583
0.007799508
0.053462494
0.016422223
0.0049675326
0.041380323
0.019933889
0.012872027
0.029418422
-0.017736524
0.03532919
0.0011692968
0.06352497
-0.0080567775
-0.012327065
-0.049777564
-0.016411014
0.016095245
0.05360844
0.031471457
0.036196146
0.013541421
0.02240081
0.053956755
0.067732
0.04488917
0.018508237
0.043977723
0.02285248
0.086098984
-0.020385562
0.006111535
-0.043580655
0.02076075
0.017547019
-0.026048549
-0.011314731
0.021073962
-0.038324427
-0.06261446
-0.020340715
-0.0013436327
-0.022289442
-0.0048983423
0.07521677
0.065803386
0.045622215
-0.036027364
-0.055683903
-0.013166581
0.11135716
0.11475446
0.031358197
0.02746445
0.018712165
0.029006686
-0.013322511
0.010029586
0.04038767
0.014564255
0.016811524
-0.07869711
0.022766894
0.031441197
0.04576175
0.03156427
-0.049074944
0.00464923
-0.033382993
0.011348225
-0.019794516
0.010150657
0.030948436
0.0077239014
0.024618298
-0.045252044
0.07912019
0.033605244
0.0070704473
-0.02240523
0.023994103
-0.01912123
0.02210152
0.019980242
-0.0009688682
0.024207782
-0.0027305284
0.013060891
0.03618282
-0.029082198
-0.05238299
0.019050714
0.003155909
-0.027802693
-0.010928089
0.051501397
0.044225216
0.026064508
-0.034636445
-0.0832676
0.07434335
0.19943027
0.001520483
0.03431173
-0.048046183
-0.0031356814
-0.08579346
0.0063214647
-0.0056500765
-0.036753103
-0.025017442
-0.07109309
0.015953368
-0.0026325956
0.0148241725
0.013882082
-0.02672319
-0.029150011
-0.0012419455
-0.020463208
0.043130025
0.022634307
-0.055186953
0.034868617
0.0719379
0.07332945
0.073710315
0.01567057
0.026007842
0.08353237
0.070976384
-0.04868629
0.0627027
0.09134092
-0.026906667
-0.0054892562
-0.008040196
0.0064245365
0.034250747
0.006584392
-0.044324335
0.0075383754
0.014162268
0.0033271913
0.008031516
0.06625072
0.10502132
-0.060674742
0.0070203166
0.08089342
7.4918695e-05
0.09049163
-0.013314079
-0.029344313
-0.04648055
-0.061869938
-0.104534686
0.013429913
-0.026090145
0.0023025803
-0.040215593
-0.09369721
0.025990007
0.043715626
0.00044725885
0.035910137
0.012755208
-0.006930215
0.03994075
-0.008494515
0.049462374
0.058992494
-0.08940287
-0.028791822
0.014414108
0.1058957
0.17317595
-0.0685996
-0.054128263
0.04996154
0.07421748
0.0142703075
0.04244464
0.002397925
-0.02587623
-0.046887808
-0.07178318
0.026325647
0.13208117
0.10537797
-0.016104901
0.044923965
-0.013361608
-0.020579113
-0.03247604
-0.051690485
-0.038300894
-0.03482348
0.0061210226
0.033073474
-0.041919783
-0.081955925
0.03827043
0.06104054
0.027833642
-0.01915067
0.072371304
0.015267499
0.01880466
-0.034606595
0.025046008
0.06266914
0.028317245
0.0028448827
0.03164403
-0.036640596
0.022333704
0.023068668
-0.013775493
0.0016992172
-0.052610837
0.013101629
-0.0063972543
0.05858522
0.06430499
-0.060008895
-0.02052069
0.013646598
-0.0077332747
0.023616917
0.017874679
-0.018563105
0.00029755282
0.06710698
0.0380504
0.041890536
0.03498473
-0.0027352718
0.087725215
-0.06754358
-0.024964325
0.032624528
-0.030028787
0.048587218
0.0570739
0.05803923
-0.02275581
0.012213805
0.028594267
0.031323604
0.025905246
-0.049070593
-0.04786334
-0.0039736875
0.060549192
-0.14746815
-0.1352148
-0.03553049
-0.030556772
-0.007824068
-0.03151071
-0.02874311
-0.020986825
-0.05587236
0.040369652
0.0014816495
0.06923835
0.021389551
0.014220138
-0.08453785
-0.027325612
0.048541352
0.012359993
0.038282596
0.004566507
-0.16551274
-0.24452142
-0.045254033
-0.0652216
0.05197677
-0.1666262
-0.08615677
-0.06580826
-0.14792089
-0.10001782
-0.04293057
-0.02548585
-0.02563762
-0.042067625
0.0027436595
0.111104675
0.015582449
0.013263486
-0.03092208
-0.036179233
-0.06939275
-0.060519412
-0.032741897
-0.02261464
-0.032341953
0.030748371
0.047961004
-0.02531384
0.039173592
0.047377367
0.083882324
0.10645806
0.005079818
0.05755509
0.048089962
-0.030855628
0.026113793
-0.022446336
0.058309976
-0.03899552
-0.0060602305
-0.0494619
0.010062879
-0.0666203
-0.040185813
0.010833571
-0.0053378623
-0.03164907
-0.037898716
0.013029378
-0.005102713
0.04124
0.019498348
0.053146493
0.058317106
0.09241622
0.118520714
0.03681664
0.024847656
0.023741517
0.056119617
0.04898967
0.059671152
0.05582891
0.002965572
0.01800849
0.013749274
-0.04185909
0.028714713
0.046401326
-0.01765503
0.0075494736
-0.008096333
0.018195098
0.016911378
-0.019169392
0.022215445
0.009422189
0.00081471645
0.0039952183
-0.025845395
0.0059539243
-0.011160867
0.029146532
0.009333691
0.0029202157
-0.041947562
0.026040282
-0.014550115
0.026210112
0.029343473
-0.0109945005
-0.036911506
0.012852069
-0.02219518
0.089659475
-0.027328145
0.030871002
0.05483018
-0.04998563
-0.14547358
-0.29465568
0.0012377414
0.057739537
0.04251461
-0.01758775
-0.1060118
0.010441963
-0.06331002
-0.0150053855
0.101694606
0.049342982
-0.022984743
-0.047577318
-0.013396615
0.016640611
0.031803384
-0.0157306
-0.03005477
-0.014487631
-0.022571234
-0.017878365
0.03222261
-0.020792598
-0.014918478
0.0284615
-0.0034179064
-0.017685723
0.0047315294
-0.010823204
0.016830511
0.031904582
-0.004278801
-0.00033806032
-0.029236061
0.03415975
-0.026076911
-0.030159624
-0.024303572
-0.026298823
0.010506097
0.011587644
0.04887194
0.013874656
-0.022153808
-0.03520008
0.0017237669
0.057714287
0.07343545
-0.032578677
-0.04452873
0.0040702126
-0.049869895
0.034044348
0.044578977
0.0238516
-0.052678064
0.008969361
-0.010858332
-0.030527314
-0.03559634
-0.043811336
-0.004244933
0.0023750253
-0.012820118
-0.058377173
0.008092217
-0.009752852
0.004103487
0.019185089
0.062948115
-0.004567956
0.00045178997
0.012309655
0.025942503
-0.069279246
-0.1520886
-0.037336085
0.0110857915
-0.03321942
-0.09296086
-0.12117188
-0.012493975
-0.06430279
0.027695766
0.024241082
-0.030051949
-0.029035654
-0.031030769
-0.0020973638
0.031443
0.050114576
-0.005406129
-0.04985249
-0.015621076
0.026846167
-0.017169835
-0.012789394
0.030490119
0.025995413
0.062613934
-0.044832207
0.014934032
0.025550105
0.02048279
-0.024747606
0.031650938
0.005435232
0.09384179
0.0011584552
0.019148672
0.0060096374
0.012111099
0.020353997
-0.011813431
-0.07296534
0.006554555
-0.0103446245
-0.034838874
-0.010810441
0.046642967
0.03249582
-0.025394682
-0.021280147
0.034187652
0.073683865
0.16592704
0.00028766753
-0.0045915563
-0.015581477
0.09972565
0.09096309
0.055410106
0.10926368
0.002419129
-0.021109115
0.00526979
0.02953142
0.089807056
0.026654627
-0.02768135
-0.046562545
0.032526728
-0.02251199
-0.017570166
0.012767539
0.055496365
-0.056164097
-0.06964281
0.016090322
0.014215602
0.0036146406
0.01590672
-0.008059854
-0.03363234
-0.01643352
-0.04927201
0.017987587
0.041539755
0.017731976
-0.026394257
-0.0001452756
0.00865109
0.026270187
0.015673546
0.026839077
0.016741522
-0.0076869633
-0.020043569
-0.0035642933
0.055516522
0.102962054
-0.04536378
-0.123661846
-0.10125191
-0.098262146
0.060219556
-0.028567418
-0.09338154
-0.048793066
-0.029244062
-0.15864104
0.048414826
-0.07823284
0.008398366
-0.024608538
-0.10339827
0.009603646
0.04819326
0.029916983
0.09743568
0.055694982
-0.02266171
0.04070875
0.014894649
-0.020796793
-0.017902395
0.019517688
0.044969503
0.0010483235
-0.04725041
-0.059159525
0.02905857
-0.008555702
0.028557073
0.0142798545
-0.030438675
0.034630805
0.032728463
0.0324535
0.022023646
-0.015498026
0.02567111
-0.006022426
-0.022819959
0.005234913
0.018689271
-0.029634895
-0.03886911
-0.03985028
0.020593546
0.013236398
0.029851336
-0.0076656234
-0.05271395
-0.08229249
-0.087859534
-0.0074879085
0.0094815
-0.017244706
-0.03262163
-0.0072730286
0.048093613
0.012278684
0.039686017
0.06998324
0.008551621
0.039931275
-0.001831693
-0.016760174
0.067331016
0.012685052
-0.0008000026
0.009724916
0.029531028
0.03413608
-0.0057620797
0.027413143
-0.03752135
-0.010362393
-0.15597737
-0.043165278
-0.012611393
0.00861773
0.0011906036
-0.045497786
-0.071345046
-0.032130044
-0.028993899
-0.055795282
0.030682888
0.02721304
-0.023304224
-0.022942884
-0.015254528
0.07090088
0.020952174
-0.027798463
-0.021291325
-0.027426627
-0.034919634
0.014077398
-0.036473393
-0.047399845
-0.001673368
-0.14098231
-0.03852842
-0.03043208
-0.021205017
0.005959449
0.0055759456
-0.06404305
0.030233871
0.031123742
-0.031071324
-0.054888755
-0.043841172
0.020920774
0.048736665
0.023137094
0.051604837
0.038701344
0.004884975
-0.019790834
-0.053438783
-0.025406187
0.025897078
0.0077725705
-0.004146196
-0.003924006
0.012629135
0.07037724
-0.016719528
0.036007386
0.04253591
0.03944791
0.019181384
-0.0016931549
0.02057554
-0.006333327
-0.032677643
-0.0495352
-0.04780613
-0.07899848
-0.0029253727
-0.0015179341
0.042454142
-0.0010464719
0.04225223
0.093211845
0.021910235
-0.029405532
0.013211491
0.10571155
0.017970158
-0.02117993
-0.013152824
0.016589371
0.015915109
-0.02598199
-0.08608885
-0.028860787
0.0064152475
-0.0123418225
-0.033609156
-0.09984296
0.017907685
-0.013213424
-0.012563355
-0.056315262
0.01861106
0.00037792334
-0.0005554665
0.010417703
0.03228634
-0.014670386
0.010004964
0.0008222564
-0.027404848
-0.0034448847
0.03048883
0.037154295
-0.0064692977
0.036493693
-0.038524028
-0.025993437
0.001497383
0.027803753
0.03719341
0.0013380379
0.010444778
-0.0058425455
-0.0037513156
0.004800103
0.025804948
-0.016314669
0.013505182
-0.020008598
-0.08280719
-0.10196054
-0.09186368
0.0028264083
-0.009992047
-0.035683334
-0.11749419
0.026931081
0.011764718
0.022213053
-0.01642906
0.062234696
0.13403782
0.04151415
-0.0062751547
-0.062234562
0.00089066493
0.05683477
-0.033699438
-0.04700229
-0.02338514
0.07484433
0.08081007
0.0123098055
0.021709407
-0.012882704
0.001965854
0.018527962
-0.034494124
0.02085297
-0.04099623
-0.021706235
-0.00674648
0.032916717
-0.04746995
-0.06295749
0.002107096
0.0012026345
0.0014357474
0.014847205
-0.035783954
0.030442545
-0.00413684
0.009285375
-0.0075109536
0.032211073
0.035924796
-0.019994417
-0.0023181748
-0.00453007
-0.021731632
-0.04068547
-0.053099103
0.061679143
-0.0023771445
-0.08593913
-0.18825528
-0.035886586
0.014340273
-0.022481604
-0.07302044
-0.15320924
0.022636918
0.06147323
0.053934734
-0.0045534195
0.010849037
0.06419959
0.005563124
-0.026069516
0.107719675
0.13547078
0.031075371
-0.006988138
-0.00442045
-0.014297287
-0.025896644
-0.018158998
-0.03670381
0.03931581
0.012680988
-0.023976533
-0.05560529
-0.038367298
0.036572702
0.015618408
0.0066651036
0.0059019765
-0.034108013
0.031521335
0.046318557
0.0841013
-0.015186852
0.01417123
-0.002622132
0.013474826
0.0076987804
-0.01767024
0.019948864
-0.021501405
-0.015785335
-0.041156292
0.005943698
0.04450765
-0.041744683
-0.05817097
0.02252794
0.09084191
0.072939835
-0.020402053
-0.09068739
-0.038939588
-0.003994045
-0.069028236
0.005089781
-0.07217359
-0.03496047
-0.017423242
0.044209655
-0.014473238
-0.020961262
-0.003651643
0.0006060349
-0.014527379
0.031525277
-0.016024604
0.0073637264
0.043770257
0.016895536
0.016652888
0.018478706
0.0053087906
0.041161362
-0.011212269
-0.030971373
0.023058508
0.02567624
-0.020805446
-0.0046486766
-0.024846973
0.024355559
0.0006163191
-0.003475746
-0.0464721
0.031358138
-0.014315471
-0.06142319
0.004914781
0.015495025
0.027248839
-0.017671213
0.019378876
0.088299155
0.05763129
-0.032500535
-0.04236833
-0.050927453
0.064948715
0.0189655
0.01616671
0.0037857622
-0.0556861
0.012469598
0.0074151866
0.010823096
-0.010588445
-0.085724115
-0.03679986
0.031797994
0.020750528
-0.006582832
-0.04263337
0.06290804
-0.019113371
0.0059366697
-0.04749846
0.02634818
0.01051003
0.015044143
-0.053277757
-0.08566878
-0.07183077
0.020716071
0.010936921
-0.050009523
-0.07820742
-0.0006224339
0.06318213
-0.0015605121
-0.008683411
-0.070036426
-0.0056102118
0.021461235
0.05723028
-0.04295497
0.0100825215
0.0749243
0.018376043
0.009500944
-0.013123934
0.034995407
0.101592556
0.009477479
-0.007063488
0.02455505
0.029651577
0.06000503
0.010452685
0.027476342
-0.00615139
0.032190103
0.01660676
-0.042770263
-0.12084881
-0.05807584
-0.046947297
0.011560423
-0.008829637
-0.004288571
-0.026144316
-0.11787967
-0.017869055
0.053361904
0.05148704
0.021780672
-0.038472544
-0.10692229
-0.08739896
-0.030183207
-0.025968125
0.01956298
0.00013949907
0.08581714
0.13343188
0.003654858
-0.00872663
3.2090407e-05
0.084057495
0.038890503
-0.01952711
-0.0022740315
-0.044975344
-0.06482496
-0.05230029
-0.040738527
-0.0684521
-0.026432917
0.044464555
0.00416528
0.022156464
0.040327955
-0.002666049
-0.04785921
-0.00023682661
0.024211958
0.018945219
-0.022270212
-0.05139589
0.01247109
0.033049624
-0.000319807
-0.06267949
0.028638639
-0.004287988
-0.025520042
-0.0035538923
0.02871985
0.024855688
-0.0028092198
0.027869027
0.034303475
0.015119508
-0.01918445
0.024962164
0.021476438
-0.012468617
-0.036142718
-0.018985458
-0.0036318288
0.004497709
8.7411725e-05
-0.064723305
0.02246297
-0.018949501
0.014079883
-0.054765593
-0.023702309
0.03529766
0.02029785
0.006257087
0.017131712
0.02473685
0.036222767
-0.03331143
0.038887635
0.038079094
0.04428017
-0.020452555
-0.057713386
0.059396237
0.022873353
0.058178704
0.027955135
0.057105273
0.06366003
0.09255754
0.05718686
-0.048428524
-0.075416446
0.039010976
0.064538576
0.07787378
-0.09614022
-0.105093956
0.019136745
0.05457863
0.10882364
-0.013177967
-0.020408794
-0.007058815
0.0034579565
-0.08800328
-0.03430446
0.01739743
0.015695559
0.0992657
0.06952165
0.020722747
0.04124196
0.029629514
0.11321924
0.0878495
-0.019985618
-0.08338473
0.010813133
0.06802596
0.028680705
-0.082110375
-0.13544028
-0.0073330044
0.09418248
-0.0075865616
0.0010686847
0.05173174
-0.027166313
-0.0035736717
0.038759902
0.0017675315
-0.0072976532
0.03409124
0.004766226
-0.01353075
0.010883944
0.030714937
-0.016800724
-0.0584694
-0.13263245
-0.07388391
0.010089831
-0.031305663
-0.07721829
-0.10928989
0.062468983
0.04313054
0.043318734
-0.041722223
-0.023352778
0.022716325
0.0136294365
0.025763623
0.014916099
0.09118179
-0.01598875
-0.034953393
0.004823249
-0.0092905965
-0.07469081
-0.07844059
0.0074876593
-0.01603714
-0.07579554
-0.10694914
-0.025171805
0.040923532
-0.062482152
-0.07688935
-0.09121047
0.044526327
0.027161434
0.00871177
-0.070140176
-0.06838311
0.00027226142
-0.05367167
0.003158005
0.023510695
0.09540517
0.050613336
-0.038061846
0.0043131267
0.026424292
0.03343202
0.028915282
-0.029117594
0.031257953
-0.021104366
0.00094430085
0.001667456
-0.0049955724
0.005491581
0.0049341447
-0.0008369152
5.990929e-07
0.011790868
0.016202062
-0.023278503
-0.030104987
-0.00039112667
0.03486686
0.019102285
0.046530567
0.01006801
-0.021997998
-0.009393942
0.065210916
0.107385926
0.055016775
0.013736392
0.014608779
0.036182027
0.11801562
-0.016831648
-0.15753862
-0.074575216
0.03646057
0.083146654
-0.032887504
-0.0881568
0.031638447
0.052870423
0.049297113
0.08279588
0.00025089364
0.010405321
-0.026574122
0.074099675
-0.009028068
-0.035697367
-0.049195338
0.011791706
0.025911769
-0.029939217
0.030905528
-0.009585676
0.0004537115
0.011769471
-0.02895016
0.0035440563
-0.023240635
0.025028126
-0.017213963
0.03303242
-0.008703494
0.022509081
-0.029915456
-0.027267667
0.012043012
0.0075350823
-0.011805328
-0.031888947
-0.010607943
-0.020168694
-0.03153163
-0.0013639893
0.02822398
0.03452067
0.035919603
-0.02164177
-0.0087232115
0.03738692
-0.012431704
-0.12235809
-0.1342552
-0.07802122
0.0631546
-0.0061482806
-0.073605865
-0.012090798
0.016754322
0.01204828
0.08037445
0.024993401
0.01956777
0.06434575
0.018312125
0.08821032
0.01261186
0.0394067
0.033041805
-0.003546104
0.00023534444
0.037052106
0.024777325
0.0051650093
0.04793491
0.00939653
-0.019072002
-0.09288977
-0.029116295
0.021845253
0.046829216
0.0009821659
-0.093169205
-0.033073843
0.040915385
0.027028445
0.03870445
0.044357438
0.0029598128
0.0062458613
0.054419763
0.030507665
0.007992202
0.001941755
0.005883992
-0.019248594
-0.03619641
0.035401523
0.063103974
0.0022936992
-0.085028894
-0.12096494
-0.022669317
0.015122853
-0.021931214
-0.043873012
0.009446613
0.0006671073
0.057132997
-0.03620518
-0.08642603
-0.0036952167
0.10988447
0.03271225
-0.02702922
0.008419295
0.06804485
0.032625776
0.052458405
0.034384962
-0.015179348
-0.036664438
-0.03675181
-0.030814463
0.025450734
-0.033854168
-0.04635247
-0.016281195
0.053058024
-0.038159873
-0.086292684
-0.073753536
0.033507224
0.035152655
-0.03584599
-0.1112862
-0.08310112
-0.021888213
-0.05071874
-0.022838652
-0.035834927
0.001379817
0.058756225
-0.038085096
0.022138635
-0.0500187
-0.0053028027
-0.020221997
0.025810765
0.004134245
-0.0007952103
0.010647178
0.046421893
0.058101363
-0.038238913
0.015062267
0.0051852935
0.02521258
-0.04916269
-0.0380722
-0.020698927
-0.0446795
-0.0111525925
-0.00889419
-0.044958636
-0.037820496
-0.045458812
0.03890149
-0.014067398
-0.0053585176
0.035299297
-0.01711657
0.09938668
0.061374012
-0.013956594
-0.016489418
0.008799969
0.09412693
-0.04145862
-0.01522607
-0.0030116905
0.03793954
0.045746896
-0.07997943
-0.00805857
-0.0018913201
-0.0024082193
-0.007850125
0.005791014
-0.022423375
-0.07173866
-0.020322356
0.036042962
-0.024123976
0.011901086
-0.0049051824
-0.023993054
0.003977725
-0.013942427
0.031626567
-0.014959285
-0.031010713
0.0131515935
0.04295054
0.018108113
-0.04476894
0.000113578746
0.0051263454
0.01580428
-0.014024925
0.00402616
0.021614583
0.006364161
-0.012711329
0.015518816
0.008270623
0.012623856
-0.044350408
-0.008928094
0.03797281
0.022897223
-0.004866241
-0.006347558
0.028827835
0.012547754
0.016418774
0.03161845
0.0246345
-0.0046311663
-0.006881118
0.017568996
-0.059018698
0.003819574
-0.023721308
-0.018487513
-0.027880212
-0.007443081
0.014583315
-0.030670492
-0.009527864
0.012100985
-0.019215448
0.012932745
0.01518193
0.05214626
0.035943467
0.072077826
0.039227735
0.00022245254
0.009497906
-0.0020361634
0.043100014
0.022911174
-0.060893837
-0.0014080134
0.040980462
-0.022624014
-0.015734324
-0.05282829
0.020865023
0.027512228
-0.0039844573
-0.03692268
-0.016033089
0.026575929
0.019964252
-0.058765355
-0.064461954
0.017286668
0.013461226
-0.00041742943
-0.012707643
-0.038854267
-0.0393422
0.0016873889
0.043207202
-0.06742922
-0.054605495
-0.046891544
0.0028758892
0.0024937526
0.04093537
0.06026958
-0.020514287
0.009560335
-0.035105012
-0.03727142
0.01982289
0.016837224
-0.012937848
-0.057962406
-0.038669635
0.053146787
0.022804305
-0.003651368
0.038638487
-0.017819257
-0.028346373
0.019039456
-0.01794696
-0.030050062
0.014295241
0.026233997
0.0004047501
-0.023385923
0.04783105
-0.049082067
0.014106659
-0.04267859
-0.015314715
0.027701315
-0.044861957
-0.008042409
-4.203888e-05
0.006868024
-0.02035829
-0.007719754
-0.05231217
-0.038923737
0.021411574
0.0051327622
-0.053748503
-0.02865636
0.0043147174
-0.0069652027
-0.08739096
-0.011356677
0.05815313
0.038255014
-0.021076486
0.06428781
0.08616261
-0.008767906
0.00722887
0.024029048
0.22126393
0.053133357
0.0103707835
0.058118936
0.0089453235
0.09169727
0.10981271
-0.02445391
0.051862024
-0.023939746
-0.0051329136
-0.010077245
0.048596382
0.039631452
-0.024434604
-0.023002038
0.0361134
-0.0083513325
0.0337783
-0.02834782
-0.025724204
-0.015129632
-0.011233968
0.008992097
0.009954428
0.014580229
0.051810354
-0.024198044
-0.010708444
0.0031820554
0.037895244
0.011741603
0.023334676
0.0059444243
0.024874732
0.0015572899
0.023735687
-0.036213227
0.030552091
0.07164657
0.13225558
0.038749978
0.06281683
0.029515706
0.010172827
-0.01541853
-0.15227804
-0.0589205
0.011986193
-0.039728515
0.028097905
-0.083548404
-0.01221896
0.10550127
0.045291726
-0.11713708
-0.16320948
-0.14711775
-0.16005293
0.035936654
-0.00913382
0.035448268
-0.0009905405
0.022586692
0.05711434
0.028732046
0.03837906
-0.0104582375
-0.02026063
-0.003280802
-0.032174565
-0.05398367
0.002323931
0.018865086
-0.009621295
-0.026899058
0.01513985
0.03228813
-0.023507243
-0.048080828
-0.045633722
0.047769673
-0.0130771
-0.05426459
0.047774415
0.044481173
0.020078717
-0.04362371
-0.031091347
0.06966143
0.053202767
0.07061093
0.032341238
-0.037328135
-0.03305945
-0.013995705
-0.007059293
-0.06293049
0.0041073635
-0.057600785
-0.03417487
-0.07029355
-0.04986298
0.0072295917
-0.12119475
-0.14326045
-0.004310422
-0.014277766
-0.024602413
-0.03056219
-0.022507621
-0.033003584
-0.070720635
-0.0005738183
-0.014675308
-0.023337293
-0.028452246
-0.02166692
-0.03111367
-0.11140527
-0.008705452
0.02238158
0.07926716
-0.00784133
-0.024625449
-0.051331956
-0.06231998
0.037215717
0.036082312
-0.05734982
-0.059581775
-0.030890444
0.008484436
-0.048804052
0.008219452
-0.014545984
0.062242493
-0.0037680957
0.012259962
-0.0074847355
0.0272789
0.036797866
-0.05164062
-0.056670006
0.00938271
0.13788868
0.050808795
-0.013401993
0.014054044
0.025009578
0.07078471
-0.0346949
-0.0032119185
0.04957808
-0.037782237
-0.034453575
-0.06366013
-0.046122003
-0.008090432
0.018364528
0.049562305
-0.02764174
0.0058281566
0.003760661
0.014354156
0.037297513
0.010795115
0.014109612
0.023845775
-0.051353578
-0.024304302
0.09506913
-0.021689465
-0.040175926
0.041632015
0.08791803
-0.019307412
-0.04249512
-0.0045102085
-0.029609911
-0.03174684
0.0400796
0.02005601
-0.01344914
-0.00856708
0.018727234
0.008668943
0.0047914884
0.010814033
0.0049569057
-0.07018785
0.031291254
0.03700731
-0.019059032
0.041409016
-0.04312856
0.04665728
-0.0013879675
0.018301763
0.032975618
0.08769364
-0.013477715
-0.026027335
0.032050367
-0.029049048
-0.02108439
-0.0021070796
-0.08065164
0.018522942
0.052940276
0.035336617
0.045801893
0.009717815
-0.055238917
0.05587168
0.08302033
0.041713662
0.021884141
-0.007522174
0.0061442023
0.0710738
0.009307023
-0.0195969
0.02487696
-0.06547065
0.00029822247
-0.06971286
0.06574138
0.11598832
-0.03366231
-0.07003721
-0.068191916
-0.035214312
0.0042231116
-0.02267299
-0.016589822
-0.03762344
-0.027923908
-0.017057596
-0.006579824
-0.07753841
-0.02495991
0.04700896
0.059871353
0.046499394
0.07474208
0.041939758
-0.061339386
-0.009029404
0.056818284
0.111499034
-0.0029496306
-0.022713391
0.06354394
0.0055183102
0.03152024
0.04311298
0.0008331188
-0.0009505042
0.003313416
0.037545763
0.014689707
-0.032792144
0.016118128
0.014413124
0.07131126
0.04453104
0.08854362
0.06683081
-0.050612085
0.14994101
0.13048601
0.0006221531
0.025672615
0.007289041
0.13376705
0.0826638
-0.02451698
0.025507027
0.05064544
-0.04073616
-0.05548881
-0.023720924
-0.07811886
0.028135113
0.03589492
-0.03155649
0.010352625
-0.009703648
0.037454035
0.11504544
0.009578836
-0.05281401
0.026520157
-0.0023051635
-0.010275484
0.01494373
-0.020675477
-0.057586167
-0.031444583
0.054566972
-0.0026741847
-0.046939954
-0.03550599
-0.00068998383
0.026760042
0.039517038
-0.012201807
-0.018360611
0.04155377
0.08642576
-0.022907332
-0.021810139
-0.026142882
0.044499047
0.007097374
-0.083081245
-0.0563165
-0.0006125294
-0.008875642
-0.025660928
-0.016289635
0.043893084
0.017606597
-0.0057051037
0.015296818
0.022405604
0.0077405544
0.008887382
-0.059722338
-0.077938974
0.045607407
0.07778092
-0.055520304
0.0166473
-0.048983462
-0.08241047
-0.047249112
0.019725824
-0.05080907
-0.00041325862
-0.010889157
0.024495555
0.08393182
-0.038952127
-0.07865036
0.07159626
0.00930304
0.059720527
-0.047378495
-0.018028378
-0.004621831
0.08364402
0.12066045
0.008378978
-0.010297086
0.041427623
0.07943199
-0.033237103
-0.0071510295
0.04440673
-0.03500198
-0.0076766293
-0.021272074
0.0033224267
-0.032747008
0.04434839
0.036687594
0.045462646
-0.026740566
0.028983967
-0.022698905
0.08243909
0.0033588135
0.016590456
0.12839293
-0.008661336
0.0064375894
0.057791088
0.030477826
0.12069481
0.111358404
0.013522389
-0.03821897
0.031059429
-0.0016323013
0.007941729
0.0046994807
-0.016498413
0.02524062
0.056770485
0.068637624
0.05870099
0.021765042
0.01674257
0.09638027
0.005897979
-0.064270675
0.06586537
-0.008368947
-0.013398404
-0.09078726
-0.10324069
0.03008621
-0.047130883
-0.07589097
-0.04744441
0.010218036
-0.043362394
-0.02588974
-0.01523315
0.039906215
-0.010789686
0.032512836
-0.0016257501
0.14326777
0.13650349
0.052952975
-0.03160487
-0.011072502
0.049857114
0.0031586383
0.005567815
-0.013136069
-0.04986456
0.06804602
-0.062873244
0.004900132
-0.060694173
0.0020517171
-0.06683488
-0.05950514
-0.04400525
-0.03205209
-0.010723308
-0.0032249708
-0.031831775
-0.01898932
-0.013892906
0.02036717
0.049644716
-0.030915149
-0.016900858
0.018202461
-0.007852002
-0.00096942973
-0.029898832
-0.042069916
0.012535426
0.018421127
-0.031311702
0.008321195
-0.062718056
-0.008875049
-0.0030551248
0.0039841887
-0.0218747
-0.06475407
-0.049689654
-0.017177923
-0.07908048
-0.048897997
-0.09191268
-0.013013207
-0.01809653
0.033123307
0.072240256
0.116033755
-0.007920019
0.04058307
0.018437048
0.054819312
0.07393189
0.03034383
0.0025326028
0.033857327
-0.047086257
-0.034584988
0.03556205
0.029935393
-0.0058787335
0.11413919
0.030349728
-0.03218451
0.012113643
-0.0060899057
0.023268718
0.0114053935
0.024874188
0.016116384
-0.009959526
0.021924254
0.0039298744
-0.017933624
-0.013426266
-0.009077117
-0.002006257
0.0116401
0.0016265729
0.029785655
-0.0061316174
-0.0068293493
0.014306269
-0.008177514
-0.02298668
-0.021524172
-0.012604331
0.009118729
0.02351025
-0.021437488
0.036845244
-0.013614367
-0.06799881
-0.013014267
0.026134143
0.04835971
0.0066558905
-0.031363945
0.009549872
0.008358067
-0.04594597
0.09297527
0.0037169366
-0.010791903
-0.051899597
-0.021046495
-0.056860056
-0.05970479
-0.018363902
0.0059448625
-0.038070973
0.0066133193
-0.017658845
-0.07709817
0.017190661
-0.04993715
-0.057472453
-0.026396712
0.02451315
0.037686843
0.0092031555
0.030638548
0.030601924
-0.017733471
-0.019837596
-0.07420658
0.007523678
0.08718882
0.01878356
-0.013877711
-0.026810663
-0.05067784
0.019375948
0.016361741
-0.04613351
-0.026125439
0.10462978
-0.030695794
-0.053972453
0.05197398
0.048336733
0.025319323
0.0015430152
-0.04544403
0.043818224
0.15703523
0.0047813705
-0.010569325
-0.031023555
0.01795558
0.03391896
-0.08970787
-0.03185002
-0.012492733
-0.08264689
5.349093e-05
-0.11789404
-0.028313827
0.090654194
-0.05886477
-0.097585306
-0.073375724
0.00059792463
-0.0064329035
0.03665477
0.005314058
-0.0038531628
-0.0135951685
0.026778605
0.004598308
0.047421966
0.12944971
0.15583882
-0.037450753
0.022873426
0.07464336
0.044868276
0.044037938
-0.03985594
-0.0004724538
0.043342147
-0.029465148
-0.024139315
0.049763814
-0.024625424
0.055601276
0.040655117
0.00451627
-0.00403533
0.012291654
0.0028583782
-0.019062798
-0.036966544
-0.005882272
0.005369216
-0.028333811
-0.005354594
-0.013080622
0.025578331
0.014319842
0.026661813
0.016256124
-0.050405256
0.02194632
0.022223981
0.072754025
-0.0027289998
-0.029252188
0.021565273
0.0012417457
-0.022800185
-0.04768443
-0.07097001
-0.024963783
0.012312547
-0.05552797
-0.08409865
-0.038324032
-0.013961744
-0.05146241
-0.12673262
-0.1068673
-0.044854008
0.05876011
0.024233209
0.012844777
0.052191526
-0.04262763
0.02895705
0.011585765
0.07785503
-0.040268775
0.006015661
0.045696635
0.031231303
0.09349441
-0.021502733
-0.09927721
0.022823662
-0.01819422
0.042814154
0.025906855
-0.013901239
-0.008289359
-0.036731184
-0.033277567
-0.045475554
-0.048877105
0.0059173433
-0.0033409828
-0.0002379381
-0.023849407
-0.05563348
0.0025569834
-0.012989986
-0.0023424467
0.039581332
0.0005198433
0.011172147
-0.031152545
0.0015567084
0.04626885
0.019919043
0.01315054
-0.0019166593
0.0074249324
0.017064141
0.0005801777
-0.035213757
0.022042874
0.051377196
-0.0073535414
0.012973844
0.0019362109
-0.017208612
-0.02421942
-0.007035483
-0.0035113406
-0.028922904
-0.041687228
-0.015329158
-0.018191135
0.009425016
0.0282962
-0.018573653
0.0029660594
0.019727064
-0.017679745
-0.052520014
-0.04725685
0.016924553
-0.003667156
-0.053486705
-0.008984526
-0.0013043566
-0.05016449
-0.028925791
0.06831979
0.01194259
-0.05073696
-0.0076983375
0.05416405
0.08985473
-0.04386342
0.009371879
0.00574468
0.023671947
0.017227894
0.030503903
-0.006764286
0.04660782
0.094524294
0.07049186
-0.036157746
0.044879723
0.025997678
-0.002148692
-0.03798348
-0.04242082
-0.012443484
-0.06308929
-0.028436452
0.023628883
-0.026630405
0.025790477
-0.009027417
-0.063009635
-0.03190832
0.05126371
-0.055686384
0.045752335
-0.0021658274
-0.044535205
0.1007302
-0.018837279
0.0271125
-0.0072700335
-0.028711224
-0.0444866
-0.0366567
0.017168853
0.013011916
-0.025340317
0.0178685
0.020000853
0.02520955
-0.022879003
-0.026666284
0.007462462
-0.006206682
-0.045247756
0.01165049
0.0096994955
-0.009394943
0.02213514
-0.025286596
0.058969077
-0.0057124705
-0.06271317
0.010731261
-0.03607458
-0.10691812
-0.016032163
-0.025664994
-0.009630726
-0.020597152
-0.0050051436
0.009054293
0.029310893
0.0016641427
-0.011699467
-0.10716792
-0.043808293
0.00015930363
-0.0243267
-0.037342686
-0.066038564
-0.033976816
0.021901036
0.012790015
0.019780854
-0.070811614
-0.01463097
-0.03538636
-0.025331024
-0.014843325
-0.08986023
-0.028810853
-0.025313554
-0.029200276
-0.039342962
-0.026748106
-0.0373361
-0.018163303
-0.022590652
-0.020758739
0.014389455
-0.06068244
0.009132942
-0.03312603
-0.034878984
-0.015917646
0.012920194
0.05514841
-0.03589913
-0.019202426
0.008366726
-0.08607445
-0.017595459
0.022528308
-0.031220434
-0.041788902
-0.0087582385
0.004791875
-0.043055017
-0.023550957
0.035750333
-0.013443759
0.057221588
-0.011984202
-0.029970294
0.049734984
0.040146
0.082242034
0.040353816
0.08186898
0.05188878
0.024248278
0.063975684
-0.055157926
0.0036939254
0.034765273
0.10287473
-0.001406537
-0.013362627
0.010989099
0.08735774
0.044521302
-0.035290416
-0.004590805
-0.018635103
0.028092436
0.03324532
-0.02193939
0.0021429013
-0.0055986987
-0.015985511
-0.023687933
0.031331938
0.012774778
0.049417183
0.04969871
-0.02413524
-0.005704978
-0.014967914
-0.05131266
-0.08907111
0.026839495
-0.033873633
-0.018009888
-0.013537159
-0.05534812
-0.088691995
-0.013317983
-0.010290121
-0.04091344
0.009534942
0.042023234
0.025617233
-0.008872137
0.0097080385
0.08676615
0.05583806
0.011839706
0.09382084
0.13974236
0.17033426
-0.021999177
0.018392887
-0.0051169465
0.03647957
0.068273045
0.10162294
0.025740074
0.06371965
0.05876253
-0.009388161
0.04755043
-0.061691847
0.023273395
-0.03494016
-0.025627341
-0.008280486
-0.010952278
0.016517531
0.014571334
0.06906605
-0.06152157
0.018449616
0.04351803
0.07089081
0.03304968
-0.049948085
-0.042677082
-0.005315669
0.025055548
0.016573474
-0.0010139016
-0.0343793
0.08685576
0.047721915
0.09576969
-0.045708913
-0.00030033186
-0.011413855
-0.018987685
-0.053801533
-0.04207918
0.017716583
0.034551263
0.010642285
-0.022048146
-0.008038163
-0.009165574
-0.032520756
-0.1891272
-0.07054679
-0.05503548
0.068564296
0.0034462144
-0.039587747
-0.07128635
-0.056835584
0.059998564
-0.055146288
-0.041834816
-0.03189215
0.09137205
-0.03551727
0.0013804318
0.003806846
-0.0119453985
-0.013188728
0.036903914
0.011189398
-0.027191129
-0.003401273
0.037735373
0.016847271
0.023606114
-0.08659365
-0.0042844843
-0.0107831
0.005854501
0.0028201807
-0.109518476
-0.020377006
-0.027987305
0.025418386
0.009378018
0.07051426
-0.036908653
-0.017961666
0.003987233
-0.027376229
0.0032628078
0.018683713
-0.024701467
-0.01136643
-0.016084017
0.058518752
0.017903794
-0.027640043
-0.0014302188
0.012342817
-0.08900131
-0.12211024
-0.10638613
0.08156862
0.036391795
-0.0069030114
0.01858946
-0.05845758
-0.018716522
-0.0023589844
0.030874878
-0.04544115
0.018089028
0.027058957
-0.0016717055
-0.0064326343
0.06031115
0.073603235
0.016571414
-0.029349998
0.019817544
-0.0008490227
0.059416093
0.058619894
0.035979327
0.014851073
-0.08228558
-0.012973217
0.025558328
-0.037724905
-0.038004294
0.017582782
-0.052201275
-0.05207992
0.034733754
-0.03640223
0.014167825
0.03375812
-0.033808105
0.029156292
0.026218817
-0.009852652
-0.0070028105
0.039207306
-0.02132746
-0.027140573
0.04591038
-0.04589725
-0.00596732
-0.04021436
-0.120317504
0.056804374
0.06943275
0.10695319
0.052191615
0.06554528
0.019614998
0.07461041
-0.054411586
-0.052317213
-0.055932567
-0.051912174
-0.033591118
-0.05067006
0.012070214
-0.007931199
0.030903358
0.0039448356
-0.005797956
-0.00947244
-0.047975928
-0.08492663
-0.08992757
-0.055834845
0.047879837
-0.097450085
-0.13837782
-0.07771282
-0.07237529
0.0029380352
0.04799999
-0.05276883
-0.060453303
-0.08415477
0.011289628
-0.12610371
-0.098166876
-0.06324374
-0.094278455
-0.044530775
-0.034272023
-0.06974155
0.03436517
0.046511263
-0.0014439675
0.0063868575
0.018439807
0.025706045
0.026071874
0.023647642
0.021610323
0.11466218
0.010432586
-0.02848787
-0.033704214
-0.01577563
0.026747324
0.13857621
0.093041204
-0.055270705
0.013753879
0.06247854
0.0107134
0.02188214
-0.011900725
0.03357251
-0.027413514
0.00310311
0.001645407
-0.015265428
0.006297772
0.040880892
-0.032454144
0.0144362375
0.006763092
0.0055950275
0.005326159
0.0070749954
-0.04415385
-0.034267206
-0.022899302
-0.06996122
-0.0617756
0.00025373633
0.03615258
0.036903806
0.008241655
-0.009755659
0.013323521
-0.006981699
-0.0060239956
0.0048573096
0.029748308
-0.003989027
0.058848612
0.05108237
-0.05582043
-0.03173403
-0.061951138
0.004217651
-0.057505127
-0.12649156
0.05402733
0.059454598
0.04756858
0.050304156
0.0006240692
-0.030366657
-0.0822962
0.004277719
0.08320903
-0.016630419
-0.050431386
0.02134553
-0.03643605
0.055181783
0.0102161905
0.004633959
-0.0051889266
-0.011067908
0.09382689
-0.07867808
-0.05894376
-0.022380212
-0.007954109
0.027667822
0.03385519
0.0756593
0.020268854
0.0013157864
0.08507503
0.044110388
-0.10695924
-0.022135781
-0.00756545
0.044601537
-0.026698526
-0.0031848114
0.044716567
-0.024314584
-0.034293346
-0.015254426
0.01906901
-0.019385094
0.009242931
-0.037945762
0.039022453
-0.0075325784
0.008171026
0.03969159
0.0068641324
0.070557654
-0.023280313
-0.049168106
0.021909786
-0.0074547436
0.0027068616
0.0020093722
-0.019130453
0.03618755
-0.0140219275
0.0014555283
0.0115928855
-0.05918862
0.027110884
0.01196476
-0.012932551
-0.04091383
-0.008047488
-0.01905703
-0.025300626
-0.054404188
-0.03428288
0.04844268
-0.027840823
-0.043615356
-0.07564917
-0.08977882
-0.08838311
0.030282034
-0.10946751
-0.067583516
0.059172753
0.014349069
-0.0075226966
-0.048378203
0.008733426
-0.06492694
-0.02684829
0.005176934
-0.014610644
-0.01928369
-0.030464167
0.032324687
0.021588698
-0.047475252
0.0013902691
0.054947387
0.03557358
-0.020370267
0.01904886
0.02003848
0.0037150464
0.056482065
0.0229123
0.040730774
-0.04122449
0.038039643
0.01574534
-0.01484917
0.05547371
0.012560397
-0.059639893
-0.015385252
0.027230723
-0.025140122
-0.038360123
-0.063629344
-0.030973535
0.004253718
-0.030568015
-0.06855279
-0.039770655
-0.013127708
-0.03430709
-0.01578878
0.055517484
-0.066374
-0.036315195
0.012776349
-0.01123201
0.009608561
-0.119761385
-0.04889715
-0.017527161
-0.09039517
-0.071603745
-0.013955157
0.09082453
-0.02325911
0.022262927
-0.009102758
-0.004745862
-0.0002586232
-0.009750281
0.02121908
-0.0041764146
-0.008417857
-0.020386098
0.03184273
0.033654306
-0.011797846
0.0033641413
-0.008371786
-0.0036072372
0.003979674
-0.003971208
-0.031082574
-0.012109577
-0.007874519
-0.029571604
0.02754423
0.027374094
0.036111433
-0.029686697
0.009805892
-0.002875402
0.034948185
0.0038093973
0.04924506
-0.041668467
-0.015073502
0.05982424
0.034364022
-0.02602656
-0.040347617
-0.026540613
-0.036668748
0.030342933
-0.014122525
0.035656195
0.05364427
0.019019168
0.025952252
-0.038017098
0.011645589
0.086061984
0.050769832
-0.026901606
0.029078571
-0.013708647
-0.0044377022
-0.060245287
-0.06190259
0.02103674
0.023183268
-0.006862853
0.019449057
0.03973295
0.021573264
0.020897219
0.013485674
-0.0026410846
-0.016190311
0.038549095
-0.008094678
0.09975247
-0.053392008
-0.07760017
0.03809121
-0.010158094
-0.02305412
0.029744605
0.03609589
-0.0005669
0.012094287
0.014118114
0.028885756
0.001316507
-0.0018571516
0.025296956
0.043160625
-0.00551541
0.06435656
0.062224068
0.038957898
0.12420567
0.085488245
-0.012804586
-0.016019432
-0.02647915
0.06702875
0.087383285
0.018981013
0.04086284
0.015910048
0.0753292
-0.042751055
-0.018801063
-0.030193679
0.020428594
0.029668199
-0.0043158834
0.040295377
0.053338274
-0.01618258
0.009946927
-0.029064728
-0.004289034
0.0019228815
-0.03053668
-0.0011524032
-0.019595863
-0.023450384
0.026465105
0.016109005
-0.042185307
-0.031457696
0.05794775
-0.052546065
-0.15034208
-0.07208962
0.017841183
-0.037266616
0.001180092
0.03152251
0.017083487
0.0517713
0.042330097
0.04044375
0.025534907
-0.024720578
-0.027375394
0.029587207
-0.02719927
0.017564591
-0.08639934
0.03445637
0.023072062
0.0123059265
-0.05790441
0.01005872
0.0009313599
0.025981842
-0.046299297
-0.101105094
-0.08972749
0.006626884
0.00903911
0.012142088
0.016318638
0.05842717
0.025878023
0.0064516547
0.008974641
0.026120298
0.018009225
0.038891066
-0.026373887
-0.044671126
-0.04219159
-0.028503934
0.17604785
0.15581863
-0.030012256
0.19584613
0.112530276
0.019269658
-0.06591284
-0.018229267
-0.12289307
-0.10270889
0.06553944
0.041086633
-0.019674886
0.0008523861
-0.026370872
0.023508636
-0.014603621
0.009521497
-0.04397812
0.036746375
0.016445654
-0.012757847
0.008412962
-0.0018351609
0.063644424
0.036919903
-0.01803659
0.0155439805
-0.0051690307
0.013906914
0.002628759
-0.0012039695
-0.026032161
0.030854825
-0.015836287
-0.0033182336
0.010016825
-0.014196974
-0.016130637
-0.008077244
0.036403134
-0.019767664
-0.028747436
-0.0033489396
0.0082563395
0.027458476
0.023766063
0.02894411
0.053671703
0.067245334
-0.06982235
0.0061522815
0.029359648
0.12296819
0.050291054
-0.010907331
0.018401686
-0.01052098
-0.06113277
-0.087645106
-0.020456135
-0.031257477
0.026566971
0.031666588
0.0312808
0.04013097
-0.011577871
0.031503867
-0.02350551
-0.09280226
-0.039926603
0.06805163
-0.0024676607
-0.052844513
-0.049053263
-0.07327196
0.016387401
0.021946443
0.102723256
0.012723317
-0.031035146
-0.016049936
-0.022811977
-0.02098429
-0.056909725
0.003224358
0.031078633
-0.033224612
0.0038942692
0.0074555627
0.06935396
0.01442707
0.0043694223
-0.009647345
-0.038330756
-0.006646077
0.04649428
-0.025434505
0.025174817
-0.041095592
0.03647731
0.065411165
0.016426321
0.03089633
0.09699266
-0.012112009
-0.0014084281
-0.03829422
-0.064136475
-0.03950844
0.1506205
0.01644545
0.019739354
-0.015058404
-0.0010120567
0.03800582
-0.026929677
0.01568936
0.041650984
0.064273566
0.02894569
0.009561369
0.0064412095
-0.03991833
-0.10506578
-0.012646699
0.027603105
-0.07248032
-0.0532968
0.0043410608
0.027565839
0.023518942
0.022037672
0.045328997
-0.03122175
0.024826054
0.003914918
0.017651865
-0.05724087
-0.060295057
0.0028797006
0.0117660845
0.021205042
0.021107702
-0.09278951
-0.07089086
-0.016096141
0.0034893963
-0.03310984
-0.045622855
0.10118588
0.058249447
-0.002882426
-0.07293566
-0.078248285
0.031132437
0.019503556
-0.03744123
-0.108192936
0.0817475
0.07457006
-0.06329414
0.0020781734
-0.03965649
0.037831664
0.034540772
0.010296761
0.015833344
-0.012487416
-0.04512561
-0.02815025
-0.052883938
0.031963855
-0.013508479
0.038225643
-0.017996809
-0.015413167
0.007894976
-0.00011693998
-0.007495649
0.041166537
0.0037827722
-0.031331666
-0.0005159445
0.023577852
0.05451793
-0.02305311
-0.026707139
-0.043699183
0.0709392
0.12725578
-0.0012183636
0.016887302
-0.0116923805
0.08075498
0.022691777
0.0002254769
-0.06868578
-0.05656036
0.09783228
0.07513007
-0.049240455
-0.024952881
0.039662514
0.061765447
-0.1229979
-0.17483787
-0.0038074097
0.051864754
-0.13988324
-0.040767007
0.00870892
-0.020620633
0.010882237
-0.037696064
-0.020601721
0.017893787
-0.0035374037
-0.036721103
-0.05088052
-0.016380582
-0.02779823
0.009831334
0.07022106
-0.009954968
0.00870277
-0.0026305402
0.033982012
0.06706792
0.023969328
-0.014046548
-0.0385889
0.026062358
-0.026491413
0.015526606
0.027812382
0.027141208
-0.06407736
-0.08969176
-0.03581387
-0.014679203
-0.0625764
-0.07924704
0.021864247
0.025055425
-0.045535423
0.056345563
0.022647664
0.062241077
0.002485746
0.048966717
-0.065873325
0.043152045
0.0749342
0.014056827
-0.0008625157
-0.098483875
-0.03811053
-0.016382502
-0.00894063
-0.061590698
-0.034794126
0.0010759054
-0.06834493
-0.049347535
0.012879851
0.0107528735
0.030259222
0.020349
-0.047396902
0.014258206
-0.036667716
0.09345569
0.06328746
-0.042212088
-0.052079674
0.017576052
0.023016231
0.04699382
-0.062311612
0.00201996
0.005270167
-0.027025757
-0.0631308
-0.028327808
0.028122049
0.05977765
0.015526273
-0.01943915
0.011477215
-0.00577156
0.029690657
-0.045569524
0.043323435
-0.00028766706
-0.060474798
-0.03359767
-0.02718935
-0.07081903
0.018390125
0.102548316
-0.064510696
-0.027287442
-0.09489402
0.14546818
0.06524798
-0.053249232
0.0235539
0.05582327
-0.030423721
-0.0342567
-0.036826935
-0.021558993
-0.06349064
-0.07578368
-0.038267072
0.0292222
0.013944297
-0.051449325
-0.03833234
-0.037990704
-0.0053055966
-0.046674874
-0.035295747
-0.105269864
0.024516832
-0.0017997999
-0.04959144
-0.06698164
-0.011378992
0.018575728
0.06206236
-0.04327805
-0.063892245
0.019210232
0.06366635
0.02984582
0.02134393
-0.0018398658
0.06987854
-0.004462268
-0.013957551
-0.0073809545
0.013035566
-4.2990814e-05
-0.056114465
-0.09376566
-0.010270735
-0.0681594
0.054533746
0.085102454
-0.07021469
-0.019731635
-0.14112318
0.13916197
-0.008620102
0.0108376555
-0.016209293
-0.083622724
0.021719627
-0.069262266
-0.022876946
-0.028331865
0.0047667525
0.11970129
0.057341825
-0.003054408
-0.041146617
0.002873918
0.06645667
0.031397853
0.012893162
-0.057253435
-0.0012874084
-0.0024254373
0.03450361
-0.0066389763
0.010899344
0.09811899
-0.019830246
-0.09889646
-0.15937185
-0.0018409393
0.0851733
-0.0010346135
-0.110983364
-0.059768703
0.01117235
0.009586005
-0.0018138799
-0.09503601
-0.015390139
0.037990037
0.07522866
0.012723931
0.026453577
-0.08482594
0.035304125
-0.022199163
-0.066658854
0.10641041
0.03235749
-0.05928504
-0.0865621
-0.034506172
-0.031611558
0.017835792
-0.010367246
0.04207598
0.040147692
0.002153729
-0.07023547
0.0038003223
-0.031989463
0.1614507
0.1210088
0.0061124545
0.037663423
0.014599908
0.023834093
-0.01361704
-0.12779747
0.020387782
-0.039891824
-0.12570605
0.059299305
-0.063795336
-0.107997365
-0.08407252
0.028914036
0.07429763
-0.027909644
-0.009309827
0.11078231
0.07281502
0.031567995
0.02995309
-0.028853029
-0.058856145
-0.034203842
0.023810033
0.0416818
-0.05111296
-0.015650002
-0.08036204
0.03660555
0.08167457
-0.02603196
0.018408604
-0.07066681
0.015647879
0.015913984
0.004819373
0.015039147
-0.008926521
-0.09377344
-0.03749023
0.03139481
0.010305741
-0.02540746
0.0063829883
-0.008098147
-0.009218891
-0.048142955
0.044772845
0.02575282
-0.021361686
-0.039466493
0.03619072
-0.048404355
-0.0010676223
-0.013723919
0.024815965
0.015616089
-0.00626211
-0.021021752
0.005362689
-0.015684763
0.0047449265
-0.030662976
0.011530732
0.024081562
-0.048361458
-0.063956
-0.0119702695
0.05110056
0.04163644
0.023647211
0.024837343
-0.05408303
-0.12305011
-0.08395253
0.021901146
0.10144231
-0.023477586
-0.051736392
-0.1596697
0.04171155
0.040908433
-0.064724356
-0.056439333
0.052624896
-0.07058638
-0.13562934
0.012202691
-0.023130434
0.03735916
-0.016137622
-0.018293831
0.008470028
0.027209522
0.025697123
-0.018543556
-0.07503897
-0.08554168
-0.055955604
-0.031724986
0.026482657
-0.0071075778
-0.06375475
-0.0085098315
-0.02224174
0.12658602
0.026248371
-0.08535419
0.04283147
0.05505679
-0.020270405
-0.017115287
-0.07630363
0.061679482
0.10239385
-0.014438688
-0.056843683
0.07108283
0.03597541
-0.025268963
0.018421099
-0.01475868
0.0011086467
-0.031288058
-0.014860816
-0.022943081
-0.031088121
0.048521437
-0.019657101
0.040872972
-0.019879442
0.016432242
0.02217956
0.025058718
-0.04626298
-0.03894401
0.07408357
0.106876895
0.057275206
-0.06955068
-0.030017862
0.06050571
0.008075305
-0.016748536
0.007988491
0.025258254
-0.040092275
-0.043099403
-0.015771654
-0.011130747
-0.016291784
-0.090760335
-0.12952824
0.009918913
-0.004465519
-0.08890088
-0.043912254
0.08867653
-0.031239256
-0.031812802
0.037270527
0.056846425
0.103071176
-0.018074889
-0.11300249
0.072368756
0.078199364
-0.051340688
-0.07078891
-0.0012894755
-0.017626422
0.02205359
0.02513257
-9.513415e-05
-0.02527363
-0.011740953
0.0077801445
-0.06913999
0.011347584
-0.02098821
0.02963636
0.01452177
0.002132342
0.044651184
-0.052378938
-0.03551146
-0.05352095
0.076170675
-0.029613398
-0.032190792
-0.01969032
-0.030840991
0.03519175
0.023025885
-0.002142879
0.017486958
-0.03157243
-0.06892274
-0.082141735
-0.03869361
0.008083735
-0.0670517
0.020553784
-0.036576487
0.019750845
0.064593054
0.015373266
-0.0808489
0.031007804
0.083490446
-0.008001315
-0.019173378
-0.10914549
0.10345261
0.11289645
0.007401059
-0.06605943
-0.0044123963
0.020874707
0.046584696
0.031767838
0.0024148296
-0.038816985
0.035749506
0.0036991423
-0.011288463
-0.032181013
0.02249561
-0.011045612
-0.0039030104
0.0020557274
-0.016904617
-0.02068988
0.002075462
-0.00062949496
0.01688337
-0.0054288465
-0.011049984
-0.017779045
-0.008843531
-0.0011636553
-0.015051466
-0.022080481
0.012870434
-0.03074081
-0.02983695
-0.053235505
-0.1058299
-0.031904276
-0.03611468
-0.0025289918
-0.027434004
0.05335907
-0.015564228
-0.011176348
0.01623282
0.008184609
0.057423934
0.055914536
0.024023905
-0.033931933
-0.13723476
0.093407676
0.064875394
-0.00463242
-0.031749282
-0.08471901
-0.019089207
-0.0047624568
-0.06114327
-0.021858068
-0.03957854
-0.051318277
-0.087244324
-0.057276875
0.051011696
0.015927173
0.057776652
0.023100166
0.0150993895
0.06815423
0.07134193
-0.0142051345
0.04329093
0.04866712
-0.010271764
-0.020898571
-0.18822528
0.06719406
0.06899023
-0.009433442
-0.073144026
0.018089673
0.0063647795
0.02153049
-0.016039962
-0.005571787
-0.020315388
0.021343866
0.034945313
-0.028222993
-0.045292977
0.037136886
0.09819699
0.122994274
0.00023160044
0.05568464
0.10823079
-0.037913892
-0.02632029
0.015986992
0.104513586
-0.046680268
-0.12654388
-0.07598008
-0.013438943
0.0574415
-0.07748813
-0.122550756
-0.043783225
0.023675594
-0.0062958556
-0.020591518
0.022816138
-0.02420991
-0.022132829
-0.030124333
-0.08556929
-0.0023451704
0.012168516
-0.01659928
-0.097172335
-0.025270596
-0.07282194
-0.0075354585
-0.02970996
-0.022104353
0.07611009
0.06426054
-0.12163439
-0.010751008
0.09463861
0.07115548
-0.03571264
-0.02228295
-0.016097343
0.01319993
-0.014158808
0.05297692
-0.056500036
-0.03479522
0.06978666
0.01660824
0.00071165524
-0.010503915
-0.04624121
-0.08400654
-0.07189306
0.03539683
-0.02943329
-0.0067090495
-0.022824518
0.0032924258
0.06379693
-0.035518277
0.013036018
0.0016840516
0.050437238
-0.0031964572
-0.049579896
0.001984171
0.07640534
0.053024556
-0.0048131193
-0.020255474
0.062961005
0.088470444
0.07754473
0.029689811
-0.063289195
-0.004996314
-0.1183814
-0.05563649
-0.034775335
0.019310173
-0.027886039
-0.12074453
-0.0274786
-0.06730341
0.0617684
-0.0021344344
0.0581592
0.10824877
-0.089391105
-0.05530851
0.020391135
-0.059209745
-0.02469343
0.009510479
0.00820928
0.015518977
0.004647562
-0.0135614965
0.00805241
0.015338411
-0.02324439
0.035148185
0.029887779
-0.041855387
-0.02043714
0.010807506
-0.030946573
-0.035489853
-0.0254424
-0.029382162
0.024952292
-0.03479823
0.018850548
0.032377526
0.041489698
0.034244854
6.904819e-05
-0.010206671
0.007348833
-0.0039654304
0.0024695338
-0.041703276
0.00325744
0.05241854
0.04097243
0.017609576
0.05409998
0.0032202243
0.025899798
0.012062957
0.024473578
-0.0112585565
-0.008669033
-0.05160974
-0.053295344
-0.013449841
0.030025022
0.010550996
-0.009211868
-0.040500082
0.023438303
0.005046499
-0.07844324
-0.028659511
-0.00705903
0.030775383
0.041685104
0.035942264
-0.032593604
-0.09512356
-0.017729374
0.022439627
0.00065285387
-0.03879972
0.011436292
0.00021479954
-0.070101485
0.061260615
0.0017932634
0.0044453093
0.059574902
0.00042451432
0.059195563
0.037591446
0.048137974
-0.011291563
-0.0017170138
0.04756178
0.006376571
0.020355046
-0.013762203
0.045244966
0.07046697
0.058518413
0.0229221
0.03443836
-0.017136766
-0.012327639
-0.0031425564
-0.009721092
-0.04387536
-0.011177614
-0.04456186
-0.009001226
-0.064452164
-0.0071065254
0.032454457
0.02057941
-0.059047304
-0.018686967
